<?xml version="1.0"?>
<opencv_storage>
<stage2>
  <maxWeakCount>11</maxWeakCount>
  <stageThreshold>-8.6428397893905640e-01</stageThreshold>
  <weakClassifiers>
    <_>
      <internalNodes>
        0 -1 7153 1.4619814231991768e-02</internalNodes>
      <leafValues>
        4.9303451180458069e-01 -8.4375000000000000e-01</leafValues></_>
    <_>
      <internalNodes>
        0 -1 48 2.8453692793846130e-03</internalNodes>
      <leafValues>
        -6.8527054786682129e-01 2.5564736127853394e-01</leafValues></_>
    <_>
      <internalNodes>
        0 -1 7449 2.7709081768989563e-04</internalNodes>
      <leafValues>
        -7.2377973794937134e-01 1.5733808279037476e-01</leafValues></_>
    <_>
      <internalNodes>
        0 -1 15154 1.7813059687614441e-01</internalNodes>
      <leafValues>
        -2.7938869595527649e-01 5.6444144248962402e-01</leafValues></_>
    <_>
      <internalNodes>
        0 -1 22128 1.9758970011025667e-03</internalNodes>
      <leafValues>
        -5.8419734239578247e-01 2.2234566509723663e-01</leafValues></_>
    <_>
      <internalNodes>
        0 -1 8186 5.7920649647712708e-02</internalNodes>
      <leafValues>
        1.0628430545330048e-01 -9.1403025388717651e-01</leafValues></_>
    <_>
      <internalNodes>
        0 -1 40785 6.6495105624198914e-02</internalNodes>
      <leafValues>
        -2.7580901980400085e-01 3.9458286762237549e-01</leafValues></_>
    <_>
      <internalNodes>
        0 -1 63589 -6.3061565160751343e-02</internalNodes>
      <leafValues>
        6.2617415189743042e-01 -1.8414145708084106e-01</leafValues></_>
    <_>
      <internalNodes>
        0 -1 19079 3.1816504895687103e-02</internalNodes>
      <leafValues>
        -2.3338362574577332e-01 4.2715528607368469e-01</leafValues></_>
    <_>
      <internalNodes>
        0 -1 1 1.0446962551213801e-04</internalNodes>
      <leafValues>
        -3.8152876496315002e-01 2.7742087841033936e-01</leafValues></_>
    <_>
      <internalNodes>
        0 -1 3361 5.0573762506246567e-02</internalNodes>
      <leafValues>
        6.1860699206590652e-02 -9.2743909358978271e-01</leafValues></_></weakClassifiers></stage2>
</opencv_storage>
