<?xml version="1.0"?>
<opencv_storage>
<stage1>
  <maxWeakCount>10</maxWeakCount>
  <stageThreshold>-7.7247035503387451e-01</stageThreshold>
  <weakClassifiers>
    <_>
      <internalNodes>
        0 -1 6928 6.0738105094060302e-04</internalNodes>
      <leafValues>
        -5.5325442552566528e-01 5.2830189466476440e-01</leafValues></_>
    <_>
      <internalNodes>
        0 -1 8109 3.6383355036377907e-03</internalNodes>
      <leafValues>
        -5.5817228555679321e-01 3.8037878274917603e-01</leafValues></_>
    <_>
      <internalNodes>
        0 -1 7300 2.8714549262076616e-03</internalNodes>
      <leafValues>
        2.2052149474620819e-01 -8.0849254131317139e-01</leafValues></_>
    <_>
      <internalNodes>
        0 -1 3880 5.5917224381119013e-04</internalNodes>
      <leafValues>
        -6.7170852422714233e-01 2.0700103044509888e-01</leafValues></_>
    <_>
      <internalNodes>
        0 -1 11422 1.8747974187135696e-02</internalNodes>
      <leafValues>
        -3.4123086929321289e-01 4.7809672355651855e-01</leafValues></_>
    <_>
      <internalNodes>
        0 -1 8036 4.8126839101314545e-02</internalNodes>
      <leafValues>
        -2.3460631072521210e-01 5.4253369569778442e-01</leafValues></_>
    <_>
      <internalNodes>
        0 -1 7604 1.9076195894740522e-04</internalNodes>
      <leafValues>
        -6.2097692489624023e-01 2.0527184009552002e-01</leafValues></_>
    <_>
      <internalNodes>
        0 -1 54293 -1.7365027219057083e-02</internalNodes>
      <leafValues>
        5.1106023788452148e-01 -2.5254970788955688e-01</leafValues></_>
    <_>
      <internalNodes>
        0 -1 65966 7.4368494097143412e-04</internalNodes>
      <leafValues>
        -5.6154066324234009e-01 2.2643600404262543e-01</leafValues></_>
    <_>
      <internalNodes>
        0 -1 0 9.6681091235950589e-05</internalNodes>
      <leafValues>
        -5.0810134410858154e-01 2.5557067990303040e-01</leafValues></_></weakClassifiers></stage1>
</opencv_storage>
