<?xml version="1.0"?>
<opencv_storage>
<cascade>
  <stageType>BOOST</stageType>
  <featureType>HAAR</featureType>
  <height>20</height>
  <width>20</width>
  <stageParams>
    <boostType>GAB</boostType>
    <minHitRate>9.9500000476837158e-01</minHitRate>
    <maxFalseAlarm>5.0000000000000000e-01</maxFalseAlarm>
    <weightTrimRate>9.4999999999999996e-01</weightTrimRate>
    <maxDepth>1</maxDepth>
    <maxWeakCount>100</maxWeakCount></stageParams>
  <featureParams>
    <maxCatCount>0</maxCatCount>
    <featSize>1</featSize>
    <mode>BASIC</mode></featureParams>
  <stageNum>10</stageNum>
  <stages>
    <!-- stage 0 -->
    <_>
      <maxWeakCount>66</maxWeakCount>
      <stageThreshold>-7.7337998151779175e-01</stageThreshold>
      <weakClassifiers>
        <_>
          <internalNodes>
            0 -1 347 7.0637860335409641e-03</internalNodes>
          <leafValues>
            2.0453318953514099e-01 6.1511218547821045e-01</leafValues></_>
        <_>
          <internalNodes>
            0 -1 467 -1.8789219902828336e-03</internalNodes>
          <leafValues>
            2.7691268920898438e-01 -1.2292258441448212e-01</leafValues></_>
        <_>
          <internalNodes>
            0 -1 399 3.2122558914124966e-03</internalNodes>
          <leafValues>
            -9.8221667110919952e-02 3.0477595329284668e-01</leafValues></_>
        <_>
          <internalNodes>
            0 -1 306 1.0692911222577095e-02</internalNodes>
          <leafValues>
            8.0977417528629303e-02 -3.1508556008338928e-01</leafValues></_>
        <_>
          <internalNodes>
            0 -1 521 9.5010106451809406e-04</internalNodes>
          <leafValues>
            -1.0901939123868942e-01 3.2872396707534790e-01</leafValues></_>
        <_>
          <internalNodes>
            0 -1 307 2.3434699978679419e-03</internalNodes>
          <leafValues>
            -1.4535824954509735e-01 1.9856628775596619e-01</leafValues></_>
        <_>
          <internalNodes>
            0 -1 8 -2.5391602888703346e-02</internalNodes>
          <leafValues>
            3.0442473292350769e-01 -6.8570308387279510e-02</leafValues></_>
        <_>
          <internalNodes>
            0 -1 100 1.1728538665920496e-03</internalNodes>
          <leafValues>
            -9.7343787550926208e-02 2.5983533263206482e-01</leafValues></_>
        <_>
          <internalNodes>
            0 -1 416 -8.9345476590096951e-04</internalNodes>
          <leafValues>
            2.6211711764335632e-01 -9.7075104713439941e-02</leafValues></_>
        <_>
          <internalNodes>
            0 -1 343 -5.5127110332250595e-02</internalNodes>
          <leafValues>
            -5.6807667016983032e-01 4.4837549328804016e-02</leafValues></_>
        <_>
          <internalNodes>
            0 -1 178 -4.7299512661993504e-03</internalNodes>
          <leafValues>
            2.8664955496788025e-01 -9.4971761107444763e-02</leafValues></_>
        <_>
          <internalNodes>
            0 -1 453 5.2290754392743111e-03</internalNodes>
          <leafValues>
            -8.0255843698978424e-02 3.8069903850555420e-01</leafValues></_>
        <_>
          <internalNodes>
            0 -1 543 -4.7302953898906708e-03</internalNodes>
          <leafValues>
            -5.3054302930831909e-01 5.4525997489690781e-02</leafValues></_>
        <_>
          <internalNodes>
            0 -1 442 4.1755707934498787e-03</internalNodes>
          <leafValues>
            3.9235450327396393e-02 -7.2911405563354492e-01</leafValues></_>
        <_>
          <internalNodes>
            0 -1 706 -5.5408483603969216e-04</internalNodes>
          <leafValues>
            1.8519909679889679e-01 -1.3262645900249481e-01</leafValues></_>
        <_>
          <internalNodes>
            0 -1 574 -4.2934520170092583e-03</internalNodes>
          <leafValues>
            -7.1758025884628296e-01 3.2786522060632706e-02</leafValues></_>
        <_>
          <internalNodes>
            0 -1 94 -1.8677928019315004e-03</internalNodes>
          <leafValues>
            1.9238911569118500e-01 -1.2342973053455353e-01</leafValues></_>
        <_>
          <internalNodes>
            0 -1 57 -6.7753088660538197e-03</internalNodes>
          <leafValues>
            2.8368732333183289e-01 -9.0618722140789032e-02</leafValues></_>
        <_>
          <internalNodes>
            0 -1 733 -7.5626559555530548e-04</internalNodes>
          <leafValues>
            2.2951307892799377e-01 -1.0236885398626328e-01</leafValues></_>
        <_>
          <internalNodes>
            0 -1 541 -6.2138657085597515e-03</internalNodes>
          <leafValues>
            2.6597288250923157e-01 -9.4402112066745758e-02</leafValues></_>
        <_>
          <internalNodes>
            0 -1 699 -4.9998909235000610e-03</internalNodes>
          <leafValues>
            -4.9601677060127258e-01 5.4850444197654724e-02</leafValues></_>
        <_>
          <internalNodes>
            0 -1 490 5.4500084370374680e-03</internalNodes>
          <leafValues>
            3.4313913434743881e-02 -6.1753302812576294e-01</leafValues></_>
        <_>
          <internalNodes>
            0 -1 559 -1.5459089772775769e-03</internalNodes>
          <leafValues>
            2.4003851413726807e-01 -1.1523856967687607e-01</leafValues></_>
        <_>
          <internalNodes>
            0 -1 299 -1.1812303215265274e-02</internalNodes>
          <leafValues>
            3.0693715810775757e-01 -7.4290715157985687e-02</leafValues></_>
        <_>
          <internalNodes>
            0 -1 767 -5.0186263397336006e-03</internalNodes>
          <leafValues>
            2.3844803869724274e-01 -9.9519371986389160e-02</leafValues></_>
        <_>
          <internalNodes>
            0 -1 665 3.8927666842937469e-02</internalNodes>
          <leafValues>
            -7.8722886741161346e-02 2.9950582981109619e-01</leafValues></_>
        <_>
          <internalNodes>
            0 -1 606 -1.3765276409685612e-02</internalNodes>
          <leafValues>
            2.3422344028949738e-01 -1.0086614638566971e-01</leafValues></_>
        <_>
          <internalNodes>
            0 -1 506 -6.0244053602218628e-03</internalNodes>
          <leafValues>
            -6.8530601263046265e-01 3.6944087594747543e-02</leafValues></_>
        <_>
          <internalNodes>
            0 -1 577 -1.8685845658183098e-02</internalNodes>
          <leafValues>
            -5.4885268211364746e-01 4.2715698480606079e-02</leafValues></_>
        <_>
          <internalNodes>
            0 -1 436 -1.1015161871910095e-03</internalNodes>
          <leafValues>
            1.5785223245620728e-01 -1.5554611384868622e-01</leafValues></_>
        <_>
          <internalNodes>
            0 -1 237 -3.3902591094374657e-03</internalNodes>
          <leafValues>
            2.3677246272563934e-01 -1.0144510120153427e-01</leafValues></_>
        <_>
          <internalNodes>
            0 -1 13 -1.9124019891023636e-02</internalNodes>
          <leafValues>
            3.4652787446975708e-01 -6.2294416129589081e-02</leafValues></_>
        <_>
          <internalNodes>
            0 -1 189 1.7554625868797302e-02</internalNodes>
          <leafValues>
            -4.9407947808504105e-02 4.8114022612571716e-01</leafValues></_>
        <_>
          <internalNodes>
            0 -1 151 -7.8942991793155670e-02</internalNodes>
          <leafValues>
            -4.1346409916877747e-01 6.1001967638731003e-02</leafValues></_>
        <_>
          <internalNodes>
            0 -1 555 -5.8942545205354691e-02</internalNodes>
          <leafValues>
            -6.0433775186538696e-01 3.6434482783079147e-02</leafValues></_>
        <_>
          <internalNodes>
            0 -1 478 -1.9499735906720161e-02</internalNodes>
          <leafValues>
            -5.2416110038757324e-01 3.7588559091091156e-02</leafValues></_>
        <_>
          <internalNodes>
            0 -1 578 -3.0148862861096859e-03</internalNodes>
          <leafValues>
            2.8690037131309509e-01 -7.5245544314384460e-02</leafValues></_>
        <_>
          <internalNodes>
            0 -1 588 -4.4003222137689590e-03</internalNodes>
          <leafValues>
            -5.2283728122711182e-01 4.1869197040796280e-02</leafValues></_>
        <_>
          <internalNodes>
            0 -1 33 -1.2113158591091633e-03</internalNodes>
          <leafValues>
            2.1753549575805664e-01 -9.9500283598899841e-02</leafValues></_>
        <_>
          <internalNodes>
            0 -1 628 1.3794161379337311e-02</internalNodes>
          <leafValues>
            3.5715714097023010e-02 -5.6065058708190918e-01</leafValues></_>
        <_>
          <internalNodes>
            0 -1 637 8.2584086339920759e-04</internalNodes>
          <leafValues>
            -9.5682352781295776e-02 2.4483774602413177e-01</leafValues></_>
        <_>
          <internalNodes>
            0 -1 614 -2.5448719970881939e-03</internalNodes>
          <leafValues>
            2.1063286066055298e-01 -1.1258602887392044e-01</leafValues></_>
        <_>
          <internalNodes>
            0 -1 742 2.6527848094701767e-02</internalNodes>
          <leafValues>
            -3.5071652382612228e-02 5.7965546846389771e-01</leafValues></_>
        <_>
          <internalNodes>
            0 -1 110 -1.1412479728460312e-01</internalNodes>
          <leafValues>
            3.9634686708450317e-01 -5.2136540412902832e-02</leafValues></_>
        <_>
          <internalNodes>
            0 -1 9 2.8461042791604996e-02</internalNodes>
          <leafValues>
            -5.4206311702728271e-02 4.2510074377059937e-01</leafValues></_>
        <_>
          <internalNodes>
            0 -1 384 7.5827323598787189e-04</internalNodes>
          <leafValues>
            -1.3255652785301208e-01 1.6153372824192047e-01</leafValues></_>
        <_>
          <internalNodes>
            0 -1 212 -5.8355447836220264e-03</internalNodes>
          <leafValues>
            2.2117161750793457e-01 -1.0006643086671829e-01</leafValues></_>
        <_>
          <internalNodes>
            0 -1 265 2.3220451548695564e-03</internalNodes>
          <leafValues>
            -9.4495944678783417e-02 2.9441028833389282e-01</leafValues></_>
        <_>
          <internalNodes>
            0 -1 188 -1.3368993997573853e-02</internalNodes>
          <leafValues>
            2.5452327728271484e-01 -7.7431693673133850e-02</leafValues></_>
        <_>
          <internalNodes>
            0 -1 759 -3.7560202181339264e-03</internalNodes>
          <leafValues>
            -5.1021641492843628e-01 3.9318963885307312e-02</leafValues></_>
        <_>
          <internalNodes>
            0 -1 354 -2.8971908614039421e-03</internalNodes>
          <leafValues>
            2.0605169236660004e-01 -9.7385607659816742e-02</leafValues></_>
        <_>
          <internalNodes>
            0 -1 345 -9.6355902496725321e-04</internalNodes>
          <leafValues>
            2.2701071202754974e-01 -1.0293703526258469e-01</leafValues></_>
        <_>
          <internalNodes>
            0 -1 345 5.9252709615975618e-04</internalNodes>
          <leafValues>
            -1.4057865738868713e-01 2.1548314392566681e-01</leafValues></_>
        <_>
          <internalNodes>
            0 -1 229 -3.4309588372707367e-02</internalNodes>
          <leafValues>
            -4.3210044503211975e-01 6.2370877712965012e-02</leafValues></_>
        <_>
          <internalNodes>
            0 -1 355 -6.7916780244559050e-04</internalNodes>
          <leafValues>
            2.2056894004344940e-01 -1.0489608347415924e-01</leafValues></_>
        <_>
          <internalNodes>
            0 -1 617 1.3078739866614342e-02</internalNodes>
          <leafValues>
            3.0593644827604294e-02 -7.8557568788528442e-01</leafValues></_>
        <_>
          <internalNodes>
            0 -1 128 -4.3309191241860390e-03</internalNodes>
          <leafValues>
            -6.3216978311538696e-01 2.6502322405576706e-02</leafValues></_>
        <_>
          <internalNodes>
            0 -1 68 2.5458969175815582e-03</internalNodes>
          <leafValues>
            -1.0326343774795532e-01 1.9683489203453064e-01</leafValues></_>
        <_>
          <internalNodes>
            0 -1 375 -2.4887211620807648e-03</internalNodes>
          <leafValues>
            1.4828006923198700e-01 -1.3208614289760590e-01</leafValues></_>
        <_>
          <internalNodes>
            0 -1 132 -1.1384744197130203e-02</internalNodes>
          <leafValues>
            -4.1440808773040771e-01 4.8848256468772888e-02</leafValues></_>
        <_>
          <internalNodes>
            0 -1 314 9.3101672828197479e-03</internalNodes>
          <leafValues>
            -6.0778200626373291e-02 3.6891713738441467e-01</leafValues></_>
        <_>
          <internalNodes>
            0 -1 40 -1.8771803006529808e-03</internalNodes>
          <leafValues>
            -1.4639574289321899e-01 1.3727204501628876e-01</leafValues></_>
        <_>
          <internalNodes>
            0 -1 367 -4.5522887259721756e-02</internalNodes>
          <leafValues>
            -6.4071750640869141e-01 3.7368033081293106e-02</leafValues></_>
        <_>
          <internalNodes>
            0 -1 215 -2.0821767393499613e-03</internalNodes>
          <leafValues>
            1.9750425219535828e-01 -1.1318337917327881e-01</leafValues></_>
        <_>
          <internalNodes>
            0 -1 737 2.1360986866056919e-03</internalNodes>
          <leafValues>
            -8.2958579063415527e-02 2.4692790210247040e-01</leafValues></_>
        <_>
          <internalNodes>
            0 -1 599 -2.9539219103753567e-03</internalNodes>
          <leafValues>
            -4.4868317246437073e-01 4.4068522751331329e-02</leafValues></_></weakClassifiers></_>
    <!-- stage 1 -->
    <_>
      <maxWeakCount>64</maxWeakCount>
      <stageThreshold>-6.8076401948928833e-01</stageThreshold>
      <weakClassifiers>
        <_>
          <internalNodes>
            0 -1 623 -3.5893125459551811e-03</internalNodes>
          <leafValues>
            4.8788926005363464e-01 1.5537849068641663e-01</leafValues></_>
        <_>
          <internalNodes>
            0 -1 471 -1.3332786969840527e-02</internalNodes>
          <leafValues>
            3.9406478404998779e-01 -7.0526838302612305e-02</leafValues></_>
        <_>
          <internalNodes>
            0 -1 308 1.1955650988966227e-03</internalNodes>
          <leafValues>
            -1.3879796862602234e-01 2.3788484930992126e-01</leafValues></_>
        <_>
          <internalNodes>
            0 -1 404 4.8060035333037376e-03</internalNodes>
          <leafValues>
            -1.7809091508388519e-01 1.7653827369213104e-01</leafValues></_>
        <_>
          <internalNodes>
            0 -1 538 -1.0600846726447344e-03</internalNodes>
          <leafValues>
            2.6019629836082458e-01 -1.0303131490945816e-01</leafValues></_>
        <_>
          <internalNodes>
            0 -1 397 -3.7156064063310623e-03</internalNodes>
          <leafValues>
            2.9408553242683411e-01 -1.2292323261499405e-01</leafValues></_>
        <_>
          <internalNodes>
            0 -1 499 -6.9896120112389326e-04</internalNodes>
          <leafValues>
            2.2586235404014587e-01 -1.1625270545482635e-01</leafValues></_>
        <_>
          <internalNodes>
            0 -1 676 -2.7503012679517269e-03</internalNodes>
          <leafValues>
            2.0997838675975800e-01 -1.4115989208221436e-01</leafValues></_>
        <_>
          <internalNodes>
            0 -1 525 6.4683430537115782e-05</internalNodes>
          <leafValues>
            1.5290673077106476e-01 -1.8160916864871979e-01</leafValues></_>
        <_>
          <internalNodes>
            0 -1 448 -1.0515152476727962e-02</internalNodes>
          <leafValues>
            2.3777461051940918e-01 -1.1209229379892349e-01</leafValues></_>
        <_>
          <internalNodes>
            0 -1 683 -5.1445476710796356e-03</internalNodes>
          <leafValues>
            2.6568660140037537e-01 -8.9293092489242554e-02</leafValues></_>
        <_>
          <internalNodes>
            0 -1 512 -3.0286673456430435e-02</internalNodes>
          <leafValues>
            -4.3308675289154053e-01 5.9140212833881378e-02</leafValues></_>
        <_>
          <internalNodes>
            0 -1 514 -6.3626710325479507e-03</internalNodes>
          <leafValues>
            -7.7493673563003540e-01 2.9794009402394295e-02</leafValues></_>
        <_>
          <internalNodes>
            0 -1 509 1.2000402435660362e-02</internalNodes>
          <leafValues>
            5.9350505471229553e-02 -4.1592466831207275e-01</leafValues></_>
        <_>
          <internalNodes>
            0 -1 379 -6.0439610388129950e-04</internalNodes>
          <leafValues>
            1.9301053881645203e-01 -1.1600511521100998e-01</leafValues></_>
        <_>
          <internalNodes>
            0 -1 269 8.0573407467454672e-04</internalNodes>
          <leafValues>
            -1.1372780054807663e-01 1.7829555273056030e-01</leafValues></_>
        <_>
          <internalNodes>
            0 -1 470 6.9765619933605194e-02</internalNodes>
          <leafValues>
            4.5942116528749466e-02 -5.1099956035614014e-01</leafValues></_>
        <_>
          <internalNodes>
            0 -1 27 -1.6244456171989441e-02</internalNodes>
          <leafValues>
            2.6985475420951843e-01 -8.1400372087955475e-02</leafValues></_>
        <_>
          <internalNodes>
            0 -1 304 -2.3788579273968935e-03</internalNodes>
          <leafValues>
            2.3851284384727478e-01 -8.8929720222949982e-02</leafValues></_>
        <_>
          <internalNodes>
            0 -1 304 1.7864530673250556e-03</internalNodes>
          <leafValues>
            -1.1465551704168320e-01 2.5763133168220520e-01</leafValues></_>
        <_>
          <internalNodes>
            0 -1 36 4.9931881949305534e-03</internalNodes>
          <leafValues>
            -9.8840706050395966e-02 2.1263737976551056e-01</leafValues></_>
        <_>
          <internalNodes>
            0 -1 411 -5.0636213272809982e-03</internalNodes>
          <leafValues>
            -5.6382906436920166e-01 3.7129867821931839e-02</leafValues></_>
        <_>
          <internalNodes>
            0 -1 388 -3.2741874456405640e-03</internalNodes>
          <leafValues>
            -5.0273180007934570e-01 3.3253461122512817e-02</leafValues></_>
        <_>
          <internalNodes>
            0 -1 697 -9.6625945298001170e-04</internalNodes>
          <leafValues>
            1.9386690855026245e-01 -1.0526947677135468e-01</leafValues></_>
        <_>
          <internalNodes>
            0 -1 756 8.2853797357529402e-04</internalNodes>
          <leafValues>
            -8.3069816231727600e-02 2.5521817803382874e-01</leafValues></_>
        <_>
          <internalNodes>
            0 -1 702 5.5361323058605194e-02</internalNodes>
          <leafValues>
            -5.3652085363864899e-02 3.5315340757369995e-01</leafValues></_>
        <_>
          <internalNodes>
            0 -1 713 -3.4038578160107136e-03</internalNodes>
          <leafValues>
            -5.0559270381927490e-01 4.4817391782999039e-02</leafValues></_>
        <_>
          <internalNodes>
            0 -1 775 5.7093211216852069e-04</internalNodes>
          <leafValues>
            -1.1665599048137665e-01 1.7810057103633881e-01</leafValues></_>
        <_>
          <internalNodes>
            0 -1 669 2.2532576695084572e-03</internalNodes>
          <leafValues>
            -9.7152836620807648e-02 2.0742423832416534e-01</leafValues></_>
        <_>
          <internalNodes>
            0 -1 791 -1.7145540565252304e-02</internalNodes>
          <leafValues>
            2.6615074276924133e-01 -8.0396555364131927e-02</leafValues></_>
        <_>
          <internalNodes>
            0 -1 51 3.5281501710414886e-02</internalNodes>
          <leafValues>
            -4.6581089496612549e-02 4.1827479004859924e-01</leafValues></_>
        <_>
          <internalNodes>
            0 -1 782 1.1381469666957855e-02</internalNodes>
          <leafValues>
            -4.3918982148170471e-02 4.0715482831001282e-01</leafValues></_>
        <_>
          <internalNodes>
            0 -1 168 -3.2007186673581600e-03</internalNodes>
          <leafValues>
            2.1569116413593292e-01 -8.6288750171661377e-02</leafValues></_>
        <_>
          <internalNodes>
            0 -1 147 -2.2682528942823410e-02</internalNodes>
          <leafValues>
            3.2580330967903137e-01 -5.8846961706876755e-02</leafValues></_>
        <_>
          <internalNodes>
            0 -1 211 1.6438644379377365e-03</internalNodes>
          <leafValues>
            -9.2384822666645050e-02 2.1677374839782715e-01</leafValues></_>
        <_>
          <internalNodes>
            0 -1 389 -1.2443766463547945e-03</internalNodes>
          <leafValues>
            2.0475627481937408e-01 -1.0887589305639267e-01</leafValues></_>
        <_>
          <internalNodes>
            0 -1 322 -8.7763625197112560e-04</internalNodes>
          <leafValues>
            1.8049526214599609e-01 -1.2856574356555939e-01</leafValues></_>
        <_>
          <internalNodes>
            0 -1 457 -5.3599844686686993e-03</internalNodes>
          <leafValues>
            -5.5996048450469971e-01 4.0211956948041916e-02</leafValues></_>
        <_>
          <internalNodes>
            0 -1 114 3.8423717021942139e-02</internalNodes>
          <leafValues>
            -4.3876744806766510e-02 4.7175645828247070e-01</leafValues></_>
        <_>
          <internalNodes>
            0 -1 401 -7.8747235238552094e-04</internalNodes>
          <leafValues>
            1.5357744693756104e-01 -1.2813249230384827e-01</leafValues></_>
        <_>
          <internalNodes>
            0 -1 173 5.5002402514219284e-03</internalNodes>
          <leafValues>
            2.2226599976420403e-02 -9.1317671537399292e-01</leafValues></_>
        <_>
          <internalNodes>
            0 -1 179 -2.1081395447254181e-02</internalNodes>
          <leafValues>
            -6.7352396249771118e-01 2.4349607527256012e-02</leafValues></_>
        <_>
          <internalNodes>
            0 -1 210 5.3996103815734386e-04</internalNodes>
          <leafValues>
            -1.2621553242206573e-01 1.6936264932155609e-01</leafValues></_>
        <_>
          <internalNodes>
            0 -1 459 -1.4301923802122474e-03</internalNodes>
          <leafValues>
            2.2865301370620728e-01 -9.1279610991477966e-02</leafValues></_>
        <_>
          <internalNodes>
            0 -1 209 -6.0142641887068748e-03</internalNodes>
          <leafValues>
            -5.7985645532608032e-01 3.3088427037000656e-02</leafValues></_>
        <_>
          <internalNodes>
            0 -1 757 -3.9093103259801865e-04</internalNodes>
          <leafValues>
            1.5881337225437164e-01 -1.2695112824440002e-01</leafValues></_>
        <_>
          <internalNodes>
            0 -1 135 -7.9403852578252554e-04</internalNodes>
          <leafValues>
            1.8305239081382751e-01 -1.0714374482631683e-01</leafValues></_>
        <_>
          <internalNodes>
            0 -1 532 -7.8587178140878677e-03</internalNodes>
          <leafValues>
            -7.9245650768280029e-01 2.6990797370672226e-02</leafValues></_>
        <_>
          <internalNodes>
            0 -1 429 1.2113001139368862e-04</internalNodes>
          <leafValues>
            -1.5703068673610687e-01 1.2484066933393478e-01</leafValues></_>
        <_>
          <internalNodes>
            0 -1 164 7.2583273053169250e-02</internalNodes>
          <leafValues>
            2.8043758124113083e-02 -7.5387305021286011e-01</leafValues></_>
        <_>
          <internalNodes>
            0 -1 627 -1.0029489640146494e-03</internalNodes>
          <leafValues>
            2.1810522675514221e-01 -1.0515847057104111e-01</leafValues></_>
        <_>
          <internalNodes>
            0 -1 574 4.1445326060056686e-03</internalNodes>
          <leafValues>
            3.4451417624950409e-02 -6.6557180881500244e-01</leafValues></_>
        <_>
          <internalNodes>
            0 -1 298 2.1045892499387264e-03</internalNodes>
          <leafValues>
            -1.0378520935773849e-01 2.0328187942504883e-01</leafValues></_>
        <_>
          <internalNodes>
            0 -1 288 -1.7109380569308996e-03</internalNodes>
          <leafValues>
            2.0730379223823547e-01 -1.0810092836618423e-01</leafValues></_>
        <_>
          <internalNodes>
            0 -1 89 -3.1847618520259857e-03</internalNodes>
          <leafValues>
            -4.1785132884979248e-01 5.2207078784704208e-02</leafValues></_>
        <_>
          <internalNodes>
            0 -1 345 -4.9706513527780771e-04</internalNodes>
          <leafValues>
            1.7995677888393402e-01 -1.1891634017229080e-01</leafValues></_>
        <_>
          <internalNodes>
            0 -1 202 -1.7306678928434849e-03</internalNodes>
          <leafValues>
            2.0482636988162994e-01 -1.0621377080678940e-01</leafValues></_>
        <_>
          <internalNodes>
            0 -1 789 -8.4698274731636047e-03</internalNodes>
          <leafValues>
            -6.1066406965255737e-01 3.3445775508880615e-02</leafValues></_>
        <_>
          <internalNodes>
            0 -1 171 -5.1336674951016903e-03</internalNodes>
          <leafValues>
            1.8794307112693787e-01 -9.8039813339710236e-02</leafValues></_>
        <_>
          <internalNodes>
            0 -1 572 -1.4130293857306242e-03</internalNodes>
          <leafValues>
            1.8338133394718170e-01 -9.6044100821018219e-02</leafValues></_>
        <_>
          <internalNodes>
            0 -1 510 2.3579203989356756e-03</internalNodes>
          <leafValues>
            -9.8740115761756897e-02 1.9533444941043854e-01</leafValues></_>
        <_>
          <internalNodes>
            0 -1 563 1.2812050059437752e-02</internalNodes>
          <leafValues>
            3.3663656562566757e-02 -6.5502315759658813e-01</leafValues></_>
        <_>
          <internalNodes>
            0 -1 562 -5.5679585784673691e-03</internalNodes>
          <leafValues>
            -6.5953665971755981e-01 2.2262373939156532e-02</leafValues></_>
        <_>
          <internalNodes>
            0 -1 504 1.1273347772657871e-02</internalNodes>
          <leafValues>
            3.4608732908964157e-02 -4.9981370568275452e-01</leafValues></_></weakClassifiers></_>
    <!-- stage 2 -->
    <_>
      <maxWeakCount>84</maxWeakCount>
      <stageThreshold>-7.0510059595108032e-01</stageThreshold>
      <weakClassifiers>
        <_>
          <internalNodes>
            0 -1 570 -3.4925802610814571e-03</internalNodes>
          <leafValues>
            -2.4187725782394409e-01 3.9909204840660095e-01</leafValues></_>
        <_>
          <internalNodes>
            0 -1 633 -5.7496549561619759e-03</internalNodes>
          <leafValues>
            -6.1753505468368530e-01 5.7387515902519226e-02</leafValues></_>
        <_>
          <internalNodes>
            0 -1 653 -1.2616188032552600e-03</internalNodes>
          <leafValues>
            1.8587636947631836e-01 -1.2199299782514572e-01</leafValues></_>
        <_>
          <internalNodes>
            0 -1 622 9.7336731851100922e-03</internalNodes>
          <leafValues>
            -7.9975686967372894e-02 2.6517251133918762e-01</leafValues></_>
        <_>
          <internalNodes>
            0 -1 455 7.0469146594405174e-03</internalNodes>
          <leafValues>
            -1.2213191390037537e-01 2.5823268294334412e-01</leafValues></_>
        <_>
          <internalNodes>
            0 -1 585 -4.4503882527351379e-03</internalNodes>
          <leafValues>
            -5.3156208992004395e-01 6.0738984495401382e-02</leafValues></_>
        <_>
          <internalNodes>
            0 -1 437 -2.5391497183591127e-04</internalNodes>
          <leafValues>
            1.4084583520889282e-01 -1.5141136944293976e-01</leafValues></_>
        <_>
          <internalNodes>
            0 -1 390 -8.1114862114191055e-03</internalNodes>
          <leafValues>
            3.3004269003868103e-01 -8.4793508052825928e-02</leafValues></_>
        <_>
          <internalNodes>
            0 -1 341 2.1023400127887726e-02</internalNodes>
          <leafValues>
            7.9725131392478943e-02 -2.9877695441246033e-01</leafValues></_>
        <_>
          <internalNodes>
            0 -1 410 -5.4218671284615993e-03</internalNodes>
          <leafValues>
            -4.7080540657043457e-01 3.5903185606002808e-02</leafValues></_>
        <_>
          <internalNodes>
            0 -1 658 -3.6226883530616760e-03</internalNodes>
          <leafValues>
            -3.5272043943405151e-01 5.4186590015888214e-02</leafValues></_>
        <_>
          <internalNodes>
            0 -1 380 5.9527703560888767e-03</internalNodes>
          <leafValues>
            5.1929511129856110e-02 -3.4369748830795288e-01</leafValues></_>
        <_>
          <internalNodes>
            0 -1 600 -3.6943135783076286e-03</internalNodes>
          <leafValues>
            -3.8575959205627441e-01 5.1321636885404587e-02</leafValues></_>
        <_>
          <internalNodes>
            0 -1 335 6.2148859724402428e-03</internalNodes>
          <leafValues>
            -1.0090685635805130e-01 1.9065415859222412e-01</leafValues></_>
        <_>
          <internalNodes>
            0 -1 473 -3.7136051803827286e-02</internalNodes>
          <leafValues>
            2.6969382166862488e-01 -8.3218641579151154e-02</leafValues></_>
        <_>
          <internalNodes>
            0 -1 138 9.0113992337137461e-04</internalNodes>
          <leafValues>
            -7.8797705471515656e-02 2.4134863913059235e-01</leafValues></_>
        <_>
          <internalNodes>
            0 -1 569 3.0033015646040440e-03</internalNodes>
          <leafValues>
            3.5753324627876282e-02 -5.4183769226074219e-01</leafValues></_>
        <_>
          <internalNodes>
            0 -1 435 9.8125287331640720e-04</internalNodes>
          <leafValues>
            -1.1901769787073135e-01 1.7905256152153015e-01</leafValues></_>
        <_>
          <internalNodes>
            0 -1 570 7.6242489740252495e-03</internalNodes>
          <leafValues>
            2.0147018134593964e-02 -7.4035960435867310e-01</leafValues></_>
        <_>
          <internalNodes>
            0 -1 650 1.7168314661830664e-03</internalNodes>
          <leafValues>
            -9.9168479442596436e-02 1.9100084900856018e-01</leafValues></_>
        <_>
          <internalNodes>
            0 -1 400 -1.3829434290528297e-02</internalNodes>
          <leafValues>
            4.7625219821929932e-01 -3.3968068659305573e-02</leafValues></_>
        <_>
          <internalNodes>
            0 -1 451 -3.7694186903536320e-03</internalNodes>
          <leafValues>
            -4.9731218814849854e-01 3.7908099591732025e-02</leafValues></_>
        <_>
          <internalNodes>
            0 -1 395 -1.7216994892805815e-03</internalNodes>
          <leafValues>
            1.6776470839977264e-01 -1.0527460277080536e-01</leafValues></_>
        <_>
          <internalNodes>
            0 -1 607 -1.1999284848570824e-02</internalNodes>
          <leafValues>
            -4.4065582752227783e-01 4.2246516793966293e-02</leafValues></_>
        <_>
          <internalNodes>
            0 -1 63 2.2690182086080313e-03</internalNodes>
          <leafValues>
            5.3139101713895798e-02 -3.3542454242706299e-01</leafValues></_>
        <_>
          <internalNodes>
            0 -1 693 -9.0780220925807953e-03</internalNodes>
          <leafValues>
            2.3085619509220123e-01 -7.2356499731540680e-02</leafValues></_>
        <_>
          <internalNodes>
            0 -1 730 2.6721945032477379e-03</internalNodes>
          <leafValues>
            -8.8789761066436768e-02 2.0776131749153137e-01</leafValues></_>
        <_>
          <internalNodes>
            0 -1 578 1.1901920661330223e-03</internalNodes>
          <leafValues>
            -8.1941463053226471e-02 2.1376745402812958e-01</leafValues></_>
        <_>
          <internalNodes>
            0 -1 520 -3.7689502350986004e-03</internalNodes>
          <leafValues>
            2.4287410080432892e-01 -9.8558425903320312e-02</leafValues></_>
        <_>
          <internalNodes>
            0 -1 667 -1.7520502209663391e-01</internalNodes>
          <leafValues>
            4.8092746734619141e-01 -4.0551211684942245e-02</leafValues></_>
        <_>
          <internalNodes>
            0 -1 528 6.5787388011813164e-03</internalNodes>
          <leafValues>
            3.9083730429410934e-02 -5.0568485260009766e-01</leafValues></_>
        <_>
          <internalNodes>
            0 -1 136 -9.7750648856163025e-03</internalNodes>
          <leafValues>
            -6.2196022272109985e-01 2.7730258181691170e-02</leafValues></_>
        <_>
          <internalNodes>
            0 -1 104 1.0547162964940071e-02</internalNodes>
          <leafValues>
            -5.1940158009529114e-02 3.6189195513725281e-01</leafValues></_>
        <_>
          <internalNodes>
            0 -1 800 3.1011281535029411e-03</internalNodes>
          <leafValues>
            4.2334552854299545e-02 -4.7588396072387695e-01</leafValues></_>
        <_>
          <internalNodes>
            0 -1 391 4.7648823820054531e-03</internalNodes>
          <leafValues>
            -7.6271340250968933e-02 2.3409625887870789e-01</leafValues></_>
        <_>
          <internalNodes>
            0 -1 721 -6.3881529495120049e-03</internalNodes>
          <leafValues>
            -4.7586616873741150e-01 3.6997687071561813e-02</leafValues></_>
        <_>
          <internalNodes>
            0 -1 319 4.3402188457548618e-03</internalNodes>
          <leafValues>
            -7.8304685652256012e-02 2.3662886023521423e-01</leafValues></_>
        <_>
          <internalNodes>
            0 -1 117 -1.1009185109287500e-03</internalNodes>
          <leafValues>
            2.0763030648231506e-01 -9.1573975980281830e-02</leafValues></_>
        <_>
          <internalNodes>
            0 -1 83 2.0240987651050091e-03</internalNodes>
          <leafValues>
            -1.0147866606712341e-01 2.2212311625480652e-01</leafValues></_>
        <_>
          <internalNodes>
            0 -1 193 -9.4212375581264496e-02</internalNodes>
          <leafValues>
            -5.8664584159851074e-01 3.3325649797916412e-02</leafValues></_>
        <_>
          <internalNodes>
            0 -1 216 3.2677003182470798e-03</internalNodes>
          <leafValues>
            5.5163662880659103e-02 -3.0743774771690369e-01</leafValues></_>
        <_>
          <internalNodes>
            0 -1 377 8.2717901095747948e-03</internalNodes>
          <leafValues>
            4.8166718333959579e-02 -3.8856729865074158e-01</leafValues></_>
        <_>
          <internalNodes>
            0 -1 433 -1.1959725525230169e-03</internalNodes>
          <leafValues>
            2.1889583766460419e-01 -8.2866199314594269e-02</leafValues></_>
        <_>
          <internalNodes>
            0 -1 601 -2.4106530472636223e-03</internalNodes>
          <leafValues>
            -3.4468835592269897e-01 5.6142129004001617e-02</leafValues></_>
        <_>
          <internalNodes>
            0 -1 511 -2.7187541127204895e-02</internalNodes>
          <leafValues>
            -4.9930819869041443e-01 3.6718972027301788e-02</leafValues></_>
        <_>
          <internalNodes>
            0 -1 224 3.9439676329493523e-03</internalNodes>
          <leafValues>
            2.6048308238387108e-02 -5.5908393859863281e-01</leafValues></_>
        <_>
          <internalNodes>
            0 -1 786 -7.8159645199775696e-03</internalNodes>
          <leafValues>
            -8.9863175153732300e-01 1.6979640349745750e-02</leafValues></_>
        <_>
          <internalNodes>
            0 -1 661 6.1409729532897472e-03</internalNodes>
          <leafValues>
            -6.5266981720924377e-02 2.7980181574821472e-01</leafValues></_>
        <_>
          <internalNodes>
            0 -1 472 2.7149964123964310e-02</internalNodes>
          <leafValues>
            -4.7296006232500076e-02 3.6864545941352844e-01</leafValues></_>
        <_>
          <internalNodes>
            0 -1 41 -9.7795929759740829e-03</internalNodes>
          <leafValues>
            2.5531062483787537e-01 -6.8163931369781494e-02</leafValues></_>
        <_>
          <internalNodes>
            0 -1 433 1.0150545276701450e-03</internalNodes>
          <leafValues>
            -8.4138549864292145e-02 2.0677272975444794e-01</leafValues></_>
        <_>
          <internalNodes>
            0 -1 76 -2.3586414754390717e-02</internalNodes>
          <leafValues>
            2.1781475841999054e-01 -9.0205430984497070e-02</leafValues></_>
        <_>
          <internalNodes>
            0 -1 466 -4.9457699060440063e-03</internalNodes>
          <leafValues>
            -7.4883866310119629e-01 2.7877574786543846e-02</leafValues></_>
        <_>
          <internalNodes>
            0 -1 16 -5.8112923055887222e-02</internalNodes>
          <leafValues>
            3.8120824098587036e-01 -4.8799023032188416e-02</leafValues></_>
        <_>
          <internalNodes>
            0 -1 357 -9.4903334975242615e-03</internalNodes>
          <leafValues>
            -4.9011552333831787e-01 3.7922129034996033e-02</leafValues></_>
        <_>
          <internalNodes>
            0 -1 619 3.7629058351740241e-04</internalNodes>
          <leafValues>
            -1.1577513813972473e-01 1.5403871238231659e-01</leafValues></_>
        <_>
          <internalNodes>
            0 -1 197 1.1392980813980103e-02</internalNodes>
          <leafValues>
            -6.2613554298877716e-02 3.0158704519271851e-01</leafValues></_>
        <_>
          <internalNodes>
            0 -1 334 -1.5590682625770569e-02</internalNodes>
          <leafValues>
            -2.3460026085376740e-01 8.3823315799236298e-02</leafValues></_>
        <_>
          <internalNodes>
            0 -1 645 2.7920682914555073e-03</internalNodes>
          <leafValues>
            4.8208147287368774e-02 -4.1289880871772766e-01</leafValues></_>
        <_>
          <internalNodes>
            0 -1 579 3.0587285291403532e-03</internalNodes>
          <leafValues>
            -7.5113520026206970e-02 2.5290772318840027e-01</leafValues></_>
        <_>
          <internalNodes>
            0 -1 530 -1.2702148524112999e-04</internalNodes>
          <leafValues>
            1.3497827947139740e-01 -1.3291481137275696e-01</leafValues></_>
        <_>
          <internalNodes>
            0 -1 295 -6.3392538577318192e-03</internalNodes>
          <leafValues>
            -5.6599915027618408e-01 2.8273345902562141e-02</leafValues></_>
        <_>
          <internalNodes>
            0 -1 507 6.7385472357273102e-03</internalNodes>
          <leafValues>
            2.8005747124552727e-02 -5.6459552049636841e-01</leafValues></_>
        <_>
          <internalNodes>
            0 -1 330 3.1320713460445404e-02</internalNodes>
          <leafValues>
            5.0664395093917847e-02 -3.2945734262466431e-01</leafValues></_>
        <_>
          <internalNodes>
            0 -1 612 9.1475324006751180e-04</internalNodes>
          <leafValues>
            -9.7077660262584686e-02 1.7933613061904907e-01</leafValues></_>
        <_>
          <internalNodes>
            0 -1 671 1.3539616018533707e-02</internalNodes>
          <leafValues>
            2.7920477092266083e-02 -6.1803758144378662e-01</leafValues></_>
        <_>
          <internalNodes>
            0 -1 304 -2.3411985021084547e-03</internalNodes>
          <leafValues>
            1.9424730539321899e-01 -8.9083552360534668e-02</leafValues></_>
        <_>
          <internalNodes>
            0 -1 23 -3.2549366354942322e-02</internalNodes>
          <leafValues>
            -2.4599333107471466e-01 7.2617180645465851e-02</leafValues></_>
        <_>
          <internalNodes>
            0 -1 796 1.1842541862279177e-03</internalNodes>
          <leafValues>
            -1.0123386979103088e-01 1.7129844427108765e-01</leafValues></_>
        <_>
          <internalNodes>
            0 -1 11 4.1600875556468964e-03</internalNodes>
          <leafValues>
            2.9518254101276398e-02 -5.9868633747100830e-01</leafValues></_>
        <_>
          <internalNodes>
            0 -1 74 -2.2227259352803230e-02</internalNodes>
          <leafValues>
            5.4839473962783813e-01 -3.4164067357778549e-02</leafValues></_>
        <_>
          <internalNodes>
            0 -1 146 4.9144006334245205e-04</internalNodes>
          <leafValues>
            9.2785678803920746e-02 -1.9225195050239563e-01</leafValues></_>
        <_>
          <internalNodes>
            0 -1 428 -6.6437199711799622e-03</internalNodes>
          <leafValues>
            -5.7619261741638184e-01 2.8441894799470901e-02</leafValues></_>
        <_>
          <internalNodes>
            0 -1 684 -6.4383512362837791e-03</internalNodes>
          <leafValues>
            2.2586290538311005e-01 -7.8167431056499481e-02</leafValues></_>
        <_>
          <internalNodes>
            0 -1 714 7.5840030331164598e-04</internalNodes>
          <leafValues>
            -1.1020688712596893e-01 1.5904340147972107e-01</leafValues></_>
        <_>
          <internalNodes>
            0 -1 539 2.4155839346349239e-03</internalNodes>
          <leafValues>
            5.0051007419824600e-02 -3.3419933915138245e-01</leafValues></_>
        <_>
          <internalNodes>
            0 -1 712 3.0727514531463385e-03</internalNodes>
          <leafValues>
            4.3270718306303024e-02 -3.8919195532798767e-01</leafValues></_>
        <_>
          <internalNodes>
            0 -1 324 4.4796899892389774e-03</internalNodes>
          <leafValues>
            2.6104539632797241e-02 -6.2991517782211304e-01</leafValues></_>
        <_>
          <internalNodes>
            0 -1 326 -4.2864470742642879e-03</internalNodes>
          <leafValues>
            -6.3841956853866577e-01 2.1896695718169212e-02</leafValues></_>
        <_>
          <internalNodes>
            0 -1 137 -2.8824359178543091e-03</internalNodes>
          <leafValues>
            1.7097687721252441e-01 -9.3347877264022827e-02</leafValues></_>
        <_>
          <internalNodes>
            0 -1 739 1.3285637833178043e-03</internalNodes>
          <leafValues>
            8.5279226303100586e-02 -1.8618050217628479e-01</leafValues></_>
        <_>
          <internalNodes>
            0 -1 638 -5.9253966901451349e-04</internalNodes>
          <leafValues>
            1.5576465427875519e-01 -1.0074975341558456e-01</leafValues></_>
        <_>
          <internalNodes>
            0 -1 414 6.6726617515087128e-02</internalNodes>
          <leafValues>
            3.0182713642716408e-02 -5.6444013118743896e-01</leafValues></_>
        <_>
          <internalNodes>
            0 -1 358 6.3926568254828453e-03</internalNodes>
          <leafValues>
            -6.4239062368869781e-02 2.4998599290847778e-01</leafValues></_></weakClassifiers></_>
    <!-- stage 3 -->
    <_>
      <maxWeakCount>81</maxWeakCount>
      <stageThreshold>-6.9081592559814453e-01</stageThreshold>
      <weakClassifiers>
        <_>
          <internalNodes>
            0 -1 575 -1.5765186399221420e-03</internalNodes>
          <leafValues>
            5.7300615310668945e-01 2.2970822453498840e-01</leafValues></_>
        <_>
          <internalNodes>
            0 -1 5 -4.3015211820602417e-01</internalNodes>
          <leafValues>
            3.9925262331962585e-01 -5.0008770078420639e-02</leafValues></_>
        <_>
          <internalNodes>
            0 -1 60 -8.7887905538082123e-03</internalNodes>
          <leafValues>
            2.5763872265815735e-01 -1.0246206820011139e-01</leafValues></_>
        <_>
          <internalNodes>
            0 -1 61 2.9504101257771254e-03</internalNodes>
          <leafValues>
            -1.2443037331104279e-01 2.2629420459270477e-01</leafValues></_>
        <_>
          <internalNodes>
            0 -1 681 -9.7362534143030643e-04</internalNodes>
          <leafValues>
            2.0532421767711639e-01 -1.2136049568653107e-01</leafValues></_>
        <_>
          <internalNodes>
            0 -1 689 1.1881202459335327e-02</internalNodes>
          <leafValues>
            -5.9065137058496475e-02 3.4020513296127319e-01</leafValues></_>
        <_>
          <internalNodes>
            0 -1 288 -3.2031883019953966e-03</internalNodes>
          <leafValues>
            2.6530149579048157e-01 -8.4689721465110779e-02</leafValues></_>
        <_>
          <internalNodes>
            0 -1 302 -7.9972413368523121e-04</internalNodes>
          <leafValues>
            1.9941441714763641e-01 -1.0491657257080078e-01</leafValues></_>
        <_>
          <internalNodes>
            0 -1 463 1.2089996598660946e-03</internalNodes>
          <leafValues>
            -8.4191501140594482e-02 2.3972915112972260e-01</leafValues></_>
        <_>
          <internalNodes>
            0 -1 636 3.8994015194475651e-03</internalNodes>
          <leafValues>
            -7.1897231042385101e-02 2.9037228226661682e-01</leafValues></_>
        <_>
          <internalNodes>
            0 -1 573 -3.3295180182904005e-03</internalNodes>
          <leafValues>
            2.5453698635101318e-01 -9.5657266676425934e-02</leafValues></_>
        <_>
          <internalNodes>
            0 -1 181 -4.9006910994648933e-03</internalNodes>
          <leafValues>
            2.5947809219360352e-01 -7.5230978429317474e-02</leafValues></_>
        <_>
          <internalNodes>
            0 -1 385 -4.6585914678871632e-03</internalNodes>
          <leafValues>
            -7.1484804153442383e-01 2.7764935046434402e-02</leafValues></_>
        <_>
          <internalNodes>
            0 -1 6 -1.5276671387255192e-02</internalNodes>
          <leafValues>
            3.5423782467842102e-01 -5.8129884302616119e-02</leafValues></_>
        <_>
          <internalNodes>
            0 -1 494 -8.4882844239473343e-03</internalNodes>
          <leafValues>
            2.7099838852882385e-01 -7.2345346212387085e-02</leafValues></_>
        <_>
          <internalNodes>
            0 -1 726 -5.9622321277856827e-03</internalNodes>
          <leafValues>
            -7.0592308044433594e-01 2.7856431901454926e-02</leafValues></_>
        <_>
          <internalNodes>
            0 -1 21 -2.0709654316306114e-02</internalNodes>
          <leafValues>
            4.0838342905044556e-01 -4.5908708125352859e-02</leafValues></_>
        <_>
          <internalNodes>
            0 -1 53 -4.0822746232151985e-03</internalNodes>
          <leafValues>
            2.1867166459560394e-01 -9.0650148689746857e-02</leafValues></_>
        <_>
          <internalNodes>
            0 -1 772 1.1960035189986229e-03</internalNodes>
          <leafValues>
            -8.6494065821170807e-02 2.0298652350902557e-01</leafValues></_>
        <_>
          <internalNodes>
            0 -1 115 -9.1370585141703486e-04</internalNodes>
          <leafValues>
            1.6003468632698059e-01 -1.0350802540779114e-01</leafValues></_>
        <_>
          <internalNodes>
            0 -1 434 3.9003527490422130e-04</internalNodes>
          <leafValues>
            -1.0857324302196503e-01 1.6020683944225311e-01</leafValues></_>
        <_>
          <internalNodes>
            0 -1 293 2.8827305883169174e-02</internalNodes>
          <leafValues>
            6.1898175626993179e-02 -3.1851166486740112e-01</leafValues></_>
        <_>
          <internalNodes>
            0 -1 262 -7.7979657799005508e-03</internalNodes>
          <leafValues>
            3.0824971199035645e-01 -6.3730999827384949e-02</leafValues></_>
        <_>
          <internalNodes>
            0 -1 261 8.2569494843482971e-03</internalNodes>
          <leafValues>
            -6.6320233047008514e-02 2.8422123193740845e-01</leafValues></_>
        <_>
          <internalNodes>
            0 -1 454 -2.2732031065970659e-03</internalNodes>
          <leafValues>
            1.7692834138870239e-01 -1.0782223194837570e-01</leafValues></_>
        <_>
          <internalNodes>
            0 -1 551 -8.1952482461929321e-02</internalNodes>
          <leafValues>
            -4.8367467522621155e-01 3.9284840226173401e-02</leafValues></_>
        <_>
          <internalNodes>
            0 -1 489 3.9421608671545982e-03</internalNodes>
          <leafValues>
            2.5216981768608093e-02 -7.4948871135711670e-01</leafValues></_>
        <_>
          <internalNodes>
            0 -1 482 1.2745284475386143e-03</internalNodes>
          <leafValues>
            -1.1811285465955734e-01 1.6682632267475128e-01</leafValues></_>
        <_>
          <internalNodes>
            0 -1 342 1.0673482716083527e-01</internalNodes>
          <leafValues>
            3.2320495694875717e-02 -6.0268390178680420e-01</leafValues></_>
        <_>
          <internalNodes>
            0 -1 243 -1.0082705412060022e-03</internalNodes>
          <leafValues>
            2.2133266925811768e-01 -8.3521224558353424e-02</leafValues></_>
        <_>
          <internalNodes>
            0 -1 425 -1.3328095898032188e-02</internalNodes>
          <leafValues>
            -7.5368040800094604e-01 2.5590056553483009e-02</leafValues></_>
        <_>
          <internalNodes>
            0 -1 553 -7.2183826705440879e-04</internalNodes>
          <leafValues>
            1.9202016294002533e-01 -9.3945518136024475e-02</leafValues></_>
        <_>
          <internalNodes>
            0 -1 409 2.4200109764933586e-03</internalNodes>
          <leafValues>
            -1.1929507553577423e-01 1.4996215701103210e-01</leafValues></_>
        <_>
          <internalNodes>
            0 -1 703 -2.8280697762966156e-02</internalNodes>
          <leafValues>
            2.2682429850101471e-01 -9.7606614232063293e-02</leafValues></_>
        <_>
          <internalNodes>
            0 -1 670 2.5683086365461349e-02</internalNodes>
          <leafValues>
            -9.4040468335151672e-02 2.3752592504024506e-01</leafValues></_>
        <_>
          <internalNodes>
            0 -1 45 -8.3547225221991539e-03</internalNodes>
          <leafValues>
            2.8830441832542419e-01 -6.2253665179014206e-02</leafValues></_>
        <_>
          <internalNodes>
            0 -1 405 1.7840018495917320e-02</internalNodes>
          <leafValues>
            -1.1148660629987717e-01 1.6641633212566376e-01</leafValues></_>
        <_>
          <internalNodes>
            0 -1 469 9.0833529829978943e-02</internalNodes>
          <leafValues>
            4.8834286630153656e-02 -4.0351307392120361e-01</leafValues></_>
        <_>
          <internalNodes>
            0 -1 797 -2.8308047913014889e-03</internalNodes>
          <leafValues>
            -4.5898845791816711e-01 3.7415850907564163e-02</leafValues></_>
        <_>
          <internalNodes>
            0 -1 591 -3.6974239628762007e-04</internalNodes>
          <leafValues>
            1.5160103142261505e-01 -1.1061869561672211e-01</leafValues></_>
        <_>
          <internalNodes>
            0 -1 592 2.8621139936149120e-03</internalNodes>
          <leafValues>
            -8.1789210438728333e-02 2.4379575252532959e-01</leafValues></_>
        <_>
          <internalNodes>
            0 -1 652 2.9472310561686754e-03</internalNodes>
          <leafValues>
            4.3531168252229691e-02 -4.2896473407745361e-01</leafValues></_>
        <_>
          <internalNodes>
            0 -1 438 -6.2076561152935028e-04</internalNodes>
          <leafValues>
            -1.4991384744644165e-01 1.1494367569684982e-01</leafValues></_>
        <_>
          <internalNodes>
            0 -1 690 -7.9375039786100388e-03</internalNodes>
          <leafValues>
            2.2545062005519867e-01 -8.7611109018325806e-02</leafValues></_>
        <_>
          <internalNodes>
            0 -1 227 -4.2167669162154198e-03</internalNodes>
          <leafValues>
            3.2109591364860535e-01 -5.0545439124107361e-02</leafValues></_>
        <_>
          <internalNodes>
            0 -1 476 3.4521788358688354e-02</internalNodes>
          <leafValues>
            -6.3493631780147552e-02 2.8040006756782532e-01</leafValues></_>
        <_>
          <internalNodes>
            0 -1 251 -1.9805291667580605e-03</internalNodes>
          <leafValues>
            1.9899326562881470e-01 -8.8240481913089752e-02</leafValues></_>
        <_>
          <internalNodes>
            0 -1 249 1.5141592593863606e-03</internalNodes>
          <leafValues>
            -7.3336690664291382e-02 2.2540073096752167e-01</leafValues></_>
        <_>
          <internalNodes>
            0 -1 516 4.9323355779051781e-03</internalNodes>
          <leafValues>
            2.5946632027626038e-02 -7.0956659317016602e-01</leafValues></_>
        <_>
          <internalNodes>
            0 -1 327 -6.7669498093891889e-05</internalNodes>
          <leafValues>
            1.2268103659152985e-01 -1.3334074616432190e-01</leafValues></_>
        <_>
          <internalNodes>
            0 -1 626 6.6128037869930267e-03</internalNodes>
          <leafValues>
            2.8237808495759964e-02 -6.2784594297409058e-01</leafValues></_>
        <_>
          <internalNodes>
            0 -1 54 1.2239752337336540e-02</internalNodes>
          <leafValues>
            -1.0314201563596725e-01 1.8263699114322662e-01</leafValues></_>
        <_>
          <internalNodes>
            0 -1 217 1.8991857767105103e-02</internalNodes>
          <leafValues>
            -6.6717699170112610e-02 2.4764925241470337e-01</leafValues></_>
        <_>
          <internalNodes>
            0 -1 359 -5.1118567585945129e-02</internalNodes>
          <leafValues>
            -7.6899540424346924e-01 2.4522740393877029e-02</leafValues></_>
        <_>
          <internalNodes>
            0 -1 183 -4.5535378158092499e-03</internalNodes>
          <leafValues>
            -4.7980108857154846e-01 3.2420821487903595e-02</leafValues></_>
        <_>
          <internalNodes>
            0 -1 659 -9.5155043527483940e-03</internalNodes>
          <leafValues>
            -7.4184817075729370e-01 2.1654345095157623e-02</leafValues></_>
        <_>
          <internalNodes>
            0 -1 776 -1.0431322734802961e-03</internalNodes>
          <leafValues>
            1.7194432020187378e-01 -1.0415040701627731e-01</leafValues></_>
        <_>
          <internalNodes>
            0 -1 729 -5.7172030210494995e-03</internalNodes>
          <leafValues>
            -6.2912422418594360e-01 2.5104941800236702e-02</leafValues></_>
        <_>
          <internalNodes>
            0 -1 174 -8.7473890744149685e-04</internalNodes>
          <leafValues>
            1.6806451976299286e-01 -8.9762613177299500e-02</leafValues></_>
        <_>
          <internalNodes>
            0 -1 43 -1.7785374075174332e-02</internalNodes>
          <leafValues>
            -4.5651894807815552e-01 3.7351969629526138e-02</leafValues></_>
        <_>
          <internalNodes>
            0 -1 316 -1.6108483541756868e-03</internalNodes>
          <leafValues>
            1.6958668828010559e-01 -9.3431480228900909e-02</leafValues></_>
        <_>
          <internalNodes>
            0 -1 277 -1.0067973285913467e-02</internalNodes>
          <leafValues>
            -5.9142345190048218e-01 2.5911882519721985e-02</leafValues></_>
        <_>
          <internalNodes>
            0 -1 316 1.2738183140754700e-03</internalNodes>
          <leafValues>
            -9.0652093291282654e-02 1.7694379389286041e-01</leafValues></_>
        <_>
          <internalNodes>
            0 -1 360 5.8895181864500046e-02</internalNodes>
          <leafValues>
            4.5066062361001968e-02 -3.8616544008255005e-01</leafValues></_>
        <_>
          <internalNodes>
            0 -1 387 -7.3862858116626740e-03</internalNodes>
          <leafValues>
            3.3399972319602966e-01 -4.7502417117357254e-02</leafValues></_>
        <_>
          <internalNodes>
            0 -1 800 -5.5514037376269698e-04</internalNodes>
          <leafValues>
            -1.6723804175853729e-01 8.6912594735622406e-02</leafValues></_>
        <_>
          <internalNodes>
            0 -1 498 5.9124743565917015e-03</internalNodes>
          <leafValues>
            -9.9113613367080688e-02 1.5461574494838715e-01</leafValues></_>
        <_>
          <internalNodes>
            0 -1 493 -2.6175570674240589e-03</internalNodes>
          <leafValues>
            1.7665703594684601e-01 -9.5890358090400696e-02</leafValues></_>
        <_>
          <internalNodes>
            0 -1 125 -1.8234837800264359e-02</internalNodes>
          <leafValues>
            -6.6097348928451538e-01 2.5198815390467644e-02</leafValues></_>
        <_>
          <internalNodes>
            0 -1 232 8.5902120918035507e-03</internalNodes>
          <leafValues>
            -5.8234501630067825e-02 3.4137180447578430e-01</leafValues></_>
        <_>
          <internalNodes>
            0 -1 253 -5.9404820203781128e-03</internalNodes>
          <leafValues>
            2.7730947732925415e-01 -5.8898873627185822e-02</leafValues></_>
        <_>
          <internalNodes>
            0 -1 275 3.4334072843194008e-03</internalNodes>
          <leafValues>
            4.5194633305072784e-02 -3.7941989302635193e-01</leafValues></_>
        <_>
          <internalNodes>
            0 -1 180 4.9083260819315910e-03</internalNodes>
          <leafValues>
            3.8671005517244339e-02 -4.2293825745582581e-01</leafValues></_>
        <_>
          <internalNodes>
            0 -1 205 1.6886086668819189e-03</internalNodes>
          <leafValues>
            -1.0011214762926102e-01 2.0912335813045502e-01</leafValues></_>
        <_>
          <internalNodes>
            0 -1 639 -4.2673181742429733e-03</internalNodes>
          <leafValues>
            -6.3653767108917236e-01 2.6808921247720718e-02</leafValues></_>
        <_>
          <internalNodes>
            0 -1 223 2.2964635491371155e-01</internalNodes>
          <leafValues>
            2.3226112127304077e-02 -6.1266911029815674e-01</leafValues></_>
        <_>
          <internalNodes>
            0 -1 729 -5.5163941578939557e-04</internalNodes>
          <leafValues>
            1.6987788677215576e-01 -9.9321961402893066e-02</leafValues></_>
        <_>
          <internalNodes>
            0 -1 694 -2.4507392663508654e-04</internalNodes>
          <leafValues>
            1.4208440482616425e-01 -1.1723422259092331e-01</leafValues></_>
        <_>
          <internalNodes>
            0 -1 310 -1.3655859511345625e-03</internalNodes>
          <leafValues>
            1.8481731414794922e-01 -8.9500121772289276e-02</leafValues></_>
        <_>
          <internalNodes>
            0 -1 715 -1.2590496335178614e-03</internalNodes>
          <leafValues>
            1.6408000886440277e-01 -1.0348059237003326e-01</leafValues></_>
        <_>
          <internalNodes>
            0 -1 113 4.7252150252461433e-03</internalNodes>
          <leafValues>
            -7.3487497866153717e-02 2.1329002082347870e-01</leafValues></_></weakClassifiers></_>
    <!-- stage 4 -->
    <_>
      <maxWeakCount>86</maxWeakCount>
      <stageThreshold>-5.3095442056655884e-01</stageThreshold>
      <weakClassifiers>
        <_>
          <internalNodes>
            0 -1 613 8.8017610833048820e-03</internalNodes>
          <leafValues>
            2.4777370691299438e-01 5.3982299566268921e-01</leafValues></_>
        <_>
          <internalNodes>
            0 -1 47 -4.7952041029930115e-02</internalNodes>
          <leafValues>
            2.9646494984626770e-01 -6.1430636793375015e-02</leafValues></_>
        <_>
          <internalNodes>
            0 -1 632 1.1379765346646309e-03</internalNodes>
          <leafValues>
            -9.8868139088153839e-02 2.4999128282070160e-01</leafValues></_>
        <_>
          <internalNodes>
            0 -1 735 -1.1629257351160049e-03</internalNodes>
          <leafValues>
            2.2394697368144989e-01 -6.9877147674560547e-02</leafValues></_>
        <_>
          <internalNodes>
            0 -1 542 4.1756592690944672e-03</internalNodes>
          <leafValues>
            -6.3155195675790310e-04 -6.7323988676071167e-01</leafValues></_>
        <_>
          <internalNodes>
            0 -1 779 7.6224312186241150e-02</internalNodes>
          <leafValues>
            -5.1805768162012100e-02 3.4611687064170837e-01</leafValues></_>
        <_>
          <internalNodes>
            0 -1 726 3.7344058509916067e-03</internalNodes>
          <leafValues>
            6.1783649027347565e-02 -4.2370352149009705e-01</leafValues></_>
        <_>
          <internalNodes>
            0 -1 570 -3.7854418624192476e-03</internalNodes>
          <leafValues>
            -4.7851684689521790e-01 2.2491930052638054e-02</leafValues></_>
        <_>
          <internalNodes>
            0 -1 523 -1.3642730191349983e-03</internalNodes>
          <leafValues>
            1.7800819873809814e-01 -1.0186418890953064e-01</leafValues></_>
        <_>
          <internalNodes>
            0 -1 496 -1.2579746544361115e-02</internalNodes>
          <leafValues>
            -4.1806656122207642e-01 4.0816262364387512e-02</leafValues></_>
        <_>
          <internalNodes>
            0 -1 803 1.3760883361101151e-02</internalNodes>
          <leafValues>
            -4.6480525285005569e-02 3.9871472120285034e-01</leafValues></_>
        <_>
          <internalNodes>
            0 -1 596 -4.0258690714836121e-03</internalNodes>
          <leafValues>
            2.9436090588569641e-01 -5.4470591247081757e-02</leafValues></_>
        <_>
          <internalNodes>
            0 -1 200 -2.6362147182226181e-02</internalNodes>
          <leafValues>
            -8.1574475765228271e-01 2.0669257268309593e-02</leafValues></_>
        <_>
          <internalNodes>
            0 -1 364 1.0038181208074093e-03</internalNodes>
          <leafValues>
            -9.0332441031932831e-02 2.0239731669425964e-01</leafValues></_>
        <_>
          <internalNodes>
            0 -1 427 -9.1853868216276169e-03</internalNodes>
          <leafValues>
            1.7839072644710541e-01 -8.9002281427383423e-02</leafValues></_>
        <_>
          <internalNodes>
            0 -1 361 -6.2473222613334656e-02</internalNodes>
          <leafValues>
            -6.7918419837951660e-01 2.8947755694389343e-02</leafValues></_>
        <_>
          <internalNodes>
            0 -1 755 4.5969360508024693e-04</internalNodes>
          <leafValues>
            -9.8203115165233612e-02 1.7402134835720062e-01</leafValues></_>
        <_>
          <internalNodes>
            0 -1 176 6.1326022259891033e-03</internalNodes>
          <leafValues>
            3.5321705043315887e-02 -5.2155786752700806e-01</leafValues></_>
        <_>
          <internalNodes>
            0 -1 174 -1.3359684962779284e-03</internalNodes>
          <leafValues>
            1.9791902601718903e-01 -7.8999817371368408e-02</leafValues></_>
        <_>
          <internalNodes>
            0 -1 105 -1.1511962860822678e-02</internalNodes>
          <leafValues>
            -4.7513875365257263e-01 3.5197526216506958e-02</leafValues></_>
        <_>
          <internalNodes>
            0 -1 527 -5.5076768621802330e-03</internalNodes>
          <leafValues>
            -5.0932717323303223e-01 2.9056085273623466e-02</leafValues></_>
        <_>
          <internalNodes>
            0 -1 526 -1.4295228756964207e-03</internalNodes>
          <leafValues>
            1.9006587564945221e-01 -8.3331614732742310e-02</leafValues></_>
        <_>
          <internalNodes>
            0 -1 529 1.2565683573484421e-03</internalNodes>
          <leafValues>
            -1.0369422286748886e-01 1.5677390992641449e-01</leafValues></_>
        <_>
          <internalNodes>
            0 -1 99 -2.3659183643758297e-03</internalNodes>
          <leafValues>
            1.4436444640159607e-01 -1.0863990336656570e-01</leafValues></_>
        <_>
          <internalNodes>
            0 -1 46 -1.6277549788355827e-02</internalNodes>
          <leafValues>
            2.2820630669593811e-01 -6.9383896887302399e-02</leafValues></_>
        <_>
          <internalNodes>
            0 -1 3 1.3352900743484497e-01</internalNodes>
          <leafValues>
            -4.5739453285932541e-02 4.4355770945549011e-01</leafValues></_>
        <_>
          <internalNodes>
            0 -1 19 2.0081106573343277e-02</internalNodes>
          <leafValues>
            -4.8130221664905548e-02 2.9144254326820374e-01</leafValues></_>
        <_>
          <internalNodes>
            0 -1 543 -4.6051028184592724e-03</internalNodes>
          <leafValues>
            -4.4071993231773376e-01 3.5217594355344772e-02</leafValues></_>
        <_>
          <internalNodes>
            0 -1 96 -1.0932637378573418e-03</internalNodes>
          <leafValues>
            1.8917608261108398e-01 -7.9563476145267487e-02</leafValues></_>
        <_>
          <internalNodes>
            0 -1 413 -4.3659191578626633e-03</internalNodes>
          <leafValues>
            1.6596534848213196e-01 -9.0791955590248108e-02</leafValues></_>
        <_>
          <internalNodes>
            0 -1 395 -1.4786198735237122e-03</internalNodes>
          <leafValues>
            1.5205328166484833e-01 -1.0317345708608627e-01</leafValues></_>
        <_>
          <internalNodes>
            0 -1 323 5.0470018759369850e-03</internalNodes>
          <leafValues>
            -7.4630104005336761e-02 2.5640046596527100e-01</leafValues></_>
        <_>
          <internalNodes>
            0 -1 598 -8.2528102211654186e-04</internalNodes>
          <leafValues>
            1.6035288572311401e-01 -9.3583382666110992e-02</leafValues></_>
        <_>
          <internalNodes>
            0 -1 291 2.7611613273620605e-02</internalNodes>
          <leafValues>
            3.3520944416522980e-02 -4.9278903007507324e-01</leafValues></_>
        <_>
          <internalNodes>
            0 -1 69 7.7768447808921337e-03</internalNodes>
          <leafValues>
            2.1470826119184494e-02 -7.0085173845291138e-01</leafValues></_>
        <_>
          <internalNodes>
            0 -1 654 -3.3389907330274582e-03</internalNodes>
          <leafValues>
            2.5429108738899231e-01 -6.2059637159109116e-02</leafValues></_>
        <_>
          <internalNodes>
            0 -1 443 -9.6109677106142044e-03</internalNodes>
          <leafValues>
            -6.5885514020919800e-01 2.2268325090408325e-02</leafValues></_>
        <_>
          <internalNodes>
            0 -1 524 -7.0934463292360306e-04</internalNodes>
          <leafValues>
            1.7323608696460724e-01 -1.0076148062944412e-01</leafValues></_>
        <_>
          <internalNodes>
            0 -1 773 -8.7374728173017502e-03</internalNodes>
          <leafValues>
            2.7615776658058167e-01 -5.7157225906848907e-02</leafValues></_>
        <_>
          <internalNodes>
            0 -1 568 -1.3914221897721291e-02</internalNodes>
          <leafValues>
            1.7999155819416046e-01 -8.9206561446189880e-02</leafValues></_>
        <_>
          <internalNodes>
            0 -1 679 -1.4764166437089443e-02</internalNodes>
          <leafValues>
            2.9768183827400208e-01 -6.1035387217998505e-02</leafValues></_>
        <_>
          <internalNodes>
            0 -1 440 -4.3727578595280647e-03</internalNodes>
          <leafValues>
            -2.4085889756679535e-01 6.8916134536266327e-02</leafValues></_>
        <_>
          <internalNodes>
            0 -1 431 -4.9122739583253860e-03</internalNodes>
          <leafValues>
            -4.3437057733535767e-01 3.8273569196462631e-02</leafValues></_>
        <_>
          <internalNodes>
            0 -1 134 -5.8689410798251629e-04</internalNodes>
          <leafValues>
            1.7241843044757843e-01 -9.5403797924518585e-02</leafValues></_>
        <_>
          <internalNodes>
            0 -1 321 5.6257103569805622e-03</internalNodes>
          <leafValues>
            2.0523710176348686e-02 -8.2431942224502563e-01</leafValues></_>
        <_>
          <internalNodes>
            0 -1 349 1.8153227865695953e-03</internalNodes>
          <leafValues>
            -5.3899526596069336e-02 3.1656107306480408e-01</leafValues></_>
        <_>
          <internalNodes>
            0 -1 718 2.9423511587083340e-03</internalNodes>
          <leafValues>
            4.3256215751171112e-02 -4.0003019571304321e-01</leafValues></_>
        <_>
          <internalNodes>
            0 -1 350 9.9416021257638931e-03</internalNodes>
          <leafValues>
            1.5186443924903870e-02 -9.0591132640838623e-01</leafValues></_>
        <_>
          <internalNodes>
            0 -1 534 2.5338358245790005e-03</internalNodes>
          <leafValues>
            -7.4365973472595215e-02 2.2140264511108398e-01</leafValues></_>
        <_>
          <internalNodes>
            0 -1 588 -4.2727803811430931e-03</internalNodes>
          <leafValues>
            -4.8504689335823059e-01 3.9234094321727753e-02</leafValues></_>
        <_>
          <internalNodes>
            0 -1 44 -5.7289740070700645e-03</internalNodes>
          <leafValues>
            1.9940845668315887e-01 -8.1423833966255188e-02</leafValues></_>
        <_>
          <internalNodes>
            0 -1 167 1.9161933660507202e-01</internalNodes>
          <leafValues>
            -1.8848164007067680e-02 7.3050510883331299e-01</leafValues></_>
        <_>
          <internalNodes>
            0 -1 148 -1.0090722888708115e-01</internalNodes>
          <leafValues>
            7.2359079122543335e-01 -1.8250467255711555e-02</leafValues></_>
        <_>
          <internalNodes>
            0 -1 547 -8.0798259004950523e-03</internalNodes>
          <leafValues>
            1.8522535264492035e-01 -8.9764617383480072e-02</leafValues></_>
        <_>
          <internalNodes>
            0 -1 238 3.0311532318592072e-03</internalNodes>
          <leafValues>
            -9.3114212155342102e-02 1.7564529180526733e-01</leafValues></_>
        <_>
          <internalNodes>
            0 -1 142 5.8932404965162277e-02</internalNodes>
          <leafValues>
            -4.6341218054294586e-02 3.4985142946243286e-01</leafValues></_>
        <_>
          <internalNodes>
            0 -1 244 3.3328928984701633e-03</internalNodes>
          <leafValues>
            -6.2099777162075043e-02 2.3759818077087402e-01</leafValues></_>
        <_>
          <internalNodes>
            0 -1 446 -8.7265484035015106e-03</internalNodes>
          <leafValues>
            -3.1811848282814026e-01 4.7640021890401840e-02</leafValues></_>
        <_>
          <internalNodes>
            0 -1 475 -7.8227333724498749e-03</internalNodes>
          <leafValues>
            -6.1312896013259888e-01 2.3028697818517685e-02</leafValues></_>
        <_>
          <internalNodes>
            0 -1 49 2.0653385668992996e-02</internalNodes>
          <leafValues>
            -4.0137004107236862e-02 4.0952897071838379e-01</leafValues></_>
        <_>
          <internalNodes>
            0 -1 191 -7.2723254561424255e-04</internalNodes>
          <leafValues>
            1.4151260256767273e-01 -1.0748521983623505e-01</leafValues></_>
        <_>
          <internalNodes>
            0 -1 657 8.7530203163623810e-03</internalNodes>
          <leafValues>
            -7.8627012670040131e-02 1.8343336880207062e-01</leafValues></_>
        <_>
          <internalNodes>
            0 -1 777 -1.2223257217556238e-03</internalNodes>
          <leafValues>
            1.5273040533065796e-01 -9.9316321313381195e-02</leafValues></_>
        <_>
          <internalNodes>
            0 -1 734 8.5726398974657059e-03</internalNodes>
          <leafValues>
            -6.1866238713264465e-02 2.6315051317214966e-01</leafValues></_>
        <_>
          <internalNodes>
            0 -1 758 4.1353153064846992e-03</internalNodes>
          <leafValues>
            3.4096594899892807e-02 -4.9106201529502869e-01</leafValues></_>
        <_>
          <internalNodes>
            0 -1 785 1.2329078745096922e-03</internalNodes>
          <leafValues>
            -7.1622751653194427e-02 2.1933844685554504e-01</leafValues></_>
        <_>
          <internalNodes>
            0 -1 804 -4.8363944515585899e-03</internalNodes>
          <leafValues>
            -4.6263965964317322e-01 3.4296676516532898e-02</leafValues></_>
        <_>
          <internalNodes>
            0 -1 722 -2.3886669427156448e-02</internalNodes>
          <leafValues>
            2.8869661688804626e-01 -5.2310105413198471e-02</leafValues></_>
        <_>
          <internalNodes>
            0 -1 91 1.1856893543154001e-03</internalNodes>
          <leafValues>
            -8.7773889303207397e-02 1.7455923557281494e-01</leafValues></_>
        <_>
          <internalNodes>
            0 -1 90 -4.9225408583879471e-03</internalNodes>
          <leafValues>
            -5.5280590057373047e-01 3.1993456184864044e-02</leafValues></_>
        <_>
          <internalNodes>
            0 -1 615 -7.4858278036117554e-02</internalNodes>
          <leafValues>
            -9.5496511459350586e-01 1.3627737760543823e-02</leafValues></_>
        <_>
          <internalNodes>
            0 -1 165 3.5783071070909500e-03</internalNodes>
          <leafValues>
            3.0049450695514679e-02 -4.6961140632629395e-01</leafValues></_>
        <_>
          <internalNodes>
            0 -1 280 -7.8325420618057251e-02</internalNodes>
          <leafValues>
            -7.4147981405258179e-01 2.2314814850687981e-02</leafValues></_>
        <_>
          <internalNodes>
            0 -1 483 -3.0804378911852837e-02</internalNodes>
          <leafValues>
            -6.5628188848495483e-01 2.1995920687913895e-02</leafValues></_>
        <_>
          <internalNodes>
            0 -1 109 1.3324240222573280e-02</internalNodes>
          <leafValues>
            -8.7243102490901947e-02 1.9540238380432129e-01</leafValues></_>
        <_>
          <internalNodes>
            0 -1 415 2.0518217235803604e-02</internalNodes>
          <leafValues>
            3.0413310974836349e-02 -5.7761025428771973e-01</leafValues></_>
        <_>
          <internalNodes>
            0 -1 352 -2.3262617178261280e-03</internalNodes>
          <leafValues>
            2.0157290995121002e-01 -8.7852701544761658e-02</leafValues></_>
        <_>
          <internalNodes>
            0 -1 419 -1.4025679556652904e-03</internalNodes>
          <leafValues>
            1.7738488316535950e-01 -1.0404298454523087e-01</leafValues></_>
        <_>
          <internalNodes>
            0 -1 503 -1.4053792692720890e-02</internalNodes>
          <leafValues>
            2.6519626379013062e-01 -6.2969081103801727e-02</leafValues></_>
        <_>
          <internalNodes>
            0 -1 18 5.2644483745098114e-02</internalNodes>
          <leafValues>
            -4.4419843703508377e-02 3.1203749775886536e-01</leafValues></_>
        <_>
          <internalNodes>
            0 -1 318 4.6692047268152237e-02</internalNodes>
          <leafValues>
            -1.7858017235994339e-02 7.6035565137863159e-01</leafValues></_>
        <_>
          <internalNodes>
            0 -1 186 -4.3038561940193176e-02</internalNodes>
          <leafValues>
            2.5960639119148254e-01 -5.2895966917276382e-02</leafValues></_>
        <_>
          <internalNodes>
            0 -1 169 -1.2992983683943748e-02</internalNodes>
          <leafValues>
            3.6132583022117615e-01 -4.7012597322463989e-02</leafValues></_>
        <_>
          <internalNodes>
            0 -1 605 -3.8171452470123768e-03</internalNodes>
          <leafValues>
            1.7439125478267670e-01 -8.7907448410987854e-02</leafValues></_>
        <_>
          <internalNodes>
            0 -1 161 5.1930742338299751e-03</internalNodes>
          <leafValues>
            3.0754471197724342e-02 -5.2527523040771484e-01</leafValues></_>
        <_>
          <internalNodes>
            0 -1 542 -5.0574322231113911e-03</internalNodes>
          <leafValues>
            -6.4797538518905640e-01 2.4455638602375984e-02</leafValues></_></weakClassifiers></_>
    <!-- stage 5 -->
    <_>
      <maxWeakCount>91</maxWeakCount>
      <stageThreshold>-5.4168152809143066e-01</stageThreshold>
      <weakClassifiers>
        <_>
          <internalNodes>
            0 -1 562 -6.1014632228761911e-04</internalNodes>
          <leafValues>
            4.8028674721717834e-01 2.2979797422885895e-01</leafValues></_>
        <_>
          <internalNodes>
            0 -1 527 -9.0616010129451752e-04</internalNodes>
          <leafValues>
            1.8622782826423645e-01 -8.1644438207149506e-02</leafValues></_>
        <_>
          <internalNodes>
            0 -1 372 5.9432419948279858e-04</internalNodes>
          <leafValues>
            -9.8289482295513153e-02 1.5605542063713074e-01</leafValues></_>
        <_>
          <internalNodes>
            0 -1 430 1.9017145037651062e-02</internalNodes>
          <leafValues>
            3.5689663141965866e-02 -2.8196233510971069e-01</leafValues></_>
        <_>
          <internalNodes>
            0 -1 505 -5.8041892945766449e-02</internalNodes>
          <leafValues>
            -4.4703808426856995e-01 4.4194996356964111e-02</leafValues></_>
        <_>
          <internalNodes>
            0 -1 561 4.9739610403776169e-04</internalNodes>
          <leafValues>
            -9.3792229890823364e-02 1.6373464465141296e-01</leafValues></_>
        <_>
          <internalNodes>
            0 -1 408 -1.7283568158745766e-02</internalNodes>
          <leafValues>
            -3.1519067287445068e-01 4.8715524375438690e-02</leafValues></_>
        <_>
          <internalNodes>
            0 -1 634 -5.4396903142333031e-03</internalNodes>
          <leafValues>
            -3.1198719143867493e-01 5.9365659952163696e-02</leafValues></_>
        <_>
          <internalNodes>
            0 -1 211 -2.1531565580517054e-03</internalNodes>
          <leafValues>
            2.0270797610282898e-01 -7.3269255459308624e-02</leafValues></_>
        <_>
          <internalNodes>
            0 -1 211 3.4844046458601952e-03</internalNodes>
          <leafValues>
            -8.3800271153450012e-02 2.8232309222221375e-01</leafValues></_>
        <_>
          <internalNodes>
            0 -1 392 -3.7856982089579105e-03</internalNodes>
          <leafValues>
            -5.3621900081634521e-01 4.3297089636325836e-02</leafValues></_>
        <_>
          <internalNodes>
            0 -1 353 -4.4604882597923279e-02</internalNodes>
          <leafValues>
            -7.0455247163772583e-01 1.9542573019862175e-02</leafValues></_>
        <_>
          <internalNodes>
            0 -1 122 3.9487180765718222e-04</internalNodes>
          <leafValues>
            -9.3438610434532166e-02 1.6133433580398560e-01</leafValues></_>
        <_>
          <internalNodes>
            0 -1 119 1.1490404140204191e-03</internalNodes>
          <leafValues>
            -7.1828156709671021e-02 2.2110301256179810e-01</leafValues></_>
        <_>
          <internalNodes>
            0 -1 757 -1.4789584092795849e-03</internalNodes>
          <leafValues>
            2.1746408939361572e-01 -7.6076596975326538e-02</leafValues></_>
        <_>
          <internalNodes>
            0 -1 656 -1.0733195580542088e-02</internalNodes>
          <leafValues>
            -4.9515920877456665e-01 3.2821606844663620e-02</leafValues></_>
        <_>
          <internalNodes>
            0 -1 554 -1.3323684222996235e-02</internalNodes>
          <leafValues>
            -6.0242742300033569e-01 2.5794673711061478e-02</leafValues></_>
        <_>
          <internalNodes>
            0 -1 371 1.6681730048730969e-03</internalNodes>
          <leafValues>
            -5.9410404413938522e-02 2.6817768812179565e-01</leafValues></_>
        <_>
          <internalNodes>
            0 -1 255 3.8853906095027924e-02</internalNodes>
          <leafValues>
            4.6309914439916611e-02 -3.4797969460487366e-01</leafValues></_>
        <_>
          <internalNodes>
            0 -1 677 -6.8255569785833359e-03</internalNodes>
          <leafValues>
            1.8624190986156464e-01 -8.6798533797264099e-02</leafValues></_>
        <_>
          <internalNodes>
            0 -1 678 9.8875220865011215e-03</internalNodes>
          <leafValues>
            -7.8088231384754181e-02 2.0459941029548645e-01</leafValues></_>
        <_>
          <internalNodes>
            0 -1 764 -1.0331623256206512e-01</internalNodes>
          <leafValues>
            5.1174354553222656e-01 -3.1571462750434875e-02</leafValues></_>
        <_>
          <internalNodes>
            0 -1 81 -2.1262532472610474e-01</internalNodes>
          <leafValues>
            -4.1231653094291687e-01 4.4319313019514084e-02</leafValues></_>
        <_>
          <internalNodes>
            0 -1 154 4.2221015319228172e-03</internalNodes>
          <leafValues>
            3.3259738236665726e-02 -4.5013213157653809e-01</leafValues></_>
        <_>
          <internalNodes>
            0 -1 762 2.3633003234863281e-02</internalNodes>
          <leafValues>
            -3.9111632853746414e-02 3.8095796108245850e-01</leafValues></_>
        <_>
          <internalNodes>
            0 -1 231 1.4864623546600342e-02</internalNodes>
          <leafValues>
            3.1957201659679413e-02 -5.0807332992553711e-01</leafValues></_>
        <_>
          <internalNodes>
            0 -1 31 1.6150016337633133e-02</internalNodes>
          <leafValues>
            1.7601661384105682e-02 -7.5074839591979980e-01</leafValues></_>
        <_>
          <internalNodes>
            0 -1 98 1.6885084332898259e-03</internalNodes>
          <leafValues>
            -9.5334343612194061e-02 1.6862304508686066e-01</leafValues></_>
        <_>
          <internalNodes>
            0 -1 732 9.1399077791720629e-04</internalNodes>
          <leafValues>
            -9.5036871731281281e-02 1.5812711417675018e-01</leafValues></_>
        <_>
          <internalNodes>
            0 -1 754 -8.3187166601419449e-03</internalNodes>
          <leafValues>
            2.9762470722198486e-01 -4.9196872860193253e-02</leafValues></_>
        <_>
          <internalNodes>
            0 -1 155 -4.0846294723451138e-03</internalNodes>
          <leafValues>
            -2.6413652300834656e-01 6.0312807559967041e-02</leafValues></_>
        <_>
          <internalNodes>
            0 -1 116 1.6470428090542555e-03</internalNodes>
          <leafValues>
            -7.1651019155979156e-02 2.1939799189567566e-01</leafValues></_>
        <_>
          <internalNodes>
            0 -1 798 1.0674059391021729e-02</internalNodes>
          <leafValues>
            -3.9563648402690887e-02 3.6097598075866699e-01</leafValues></_>
        <_>
          <internalNodes>
            0 -1 313 -8.2826204597949982e-03</internalNodes>
          <leafValues>
            -5.5558550357818604e-01 3.0565612018108368e-02</leafValues></_>
        <_>
          <internalNodes>
            0 -1 682 -2.9810957610607147e-02</internalNodes>
          <leafValues>
            -6.9129216670989990e-01 1.7997771501541138e-02</leafValues></_>
        <_>
          <internalNodes>
            0 -1 159 1.7300403118133545e-01</internalNodes>
          <leafValues>
            -3.0008820816874504e-02 5.0326347351074219e-01</leafValues></_>
        <_>
          <internalNodes>
            0 -1 348 5.5883582681417465e-02</internalNodes>
          <leafValues>
            3.1400255858898163e-02 -5.6083118915557861e-01</leafValues></_>
        <_>
          <internalNodes>
            0 -1 424 1.7125127837061882e-02</internalNodes>
          <leafValues>
            -6.4833395183086395e-02 2.3613579571247101e-01</leafValues></_>
        <_>
          <internalNodes>
            0 -1 279 -4.1443260852247477e-04</internalNodes>
          <leafValues>
            1.6512040793895721e-01 -9.3606702983379364e-02</leafValues></_>
        <_>
          <internalNodes>
            0 -1 301 -5.2545126527547836e-03</internalNodes>
          <leafValues>
            -4.4379916787147522e-01 3.3497516065835953e-02</leafValues></_>
        <_>
          <internalNodes>
            0 -1 365 -4.7816321603022516e-04</internalNodes>
          <leafValues>
            1.7551854252815247e-01 -1.0951445251703262e-01</leafValues></_>
        <_>
          <internalNodes>
            0 -1 345 -1.1430199956521392e-03</internalNodes>
          <leafValues>
            1.8112227320671082e-01 -8.9288748800754547e-02</leafValues></_>
        <_>
          <internalNodes>
            0 -1 339 -5.7679524616105482e-05</internalNodes>
          <leafValues>
            1.2217669934034348e-01 -1.3014620542526245e-01</leafValues></_>
        <_>
          <internalNodes>
            0 -1 187 2.3019328713417053e-02</internalNodes>
          <leafValues>
            3.4363307058811188e-02 -4.9240562319755554e-01</leafValues></_>
        <_>
          <internalNodes>
            0 -1 160 -1.6320768743753433e-02</internalNodes>
          <leafValues>
            -5.3809034824371338e-01 3.2226767390966415e-02</leafValues></_>
        <_>
          <internalNodes>
            0 -1 497 -1.6815450042486191e-02</internalNodes>
          <leafValues>
            -3.1659743189811707e-01 4.5774906873703003e-02</leafValues></_>
        <_>
          <internalNodes>
            0 -1 461 -2.6022801175713539e-03</internalNodes>
          <leafValues>
            2.6778301596641541e-01 -6.2050297856330872e-02</leafValues></_>
        <_>
          <internalNodes>
            0 -1 382 3.5627707839012146e-02</internalNodes>
          <leafValues>
            3.1743854284286499e-02 -4.9945995211601257e-01</leafValues></_>
        <_>
          <internalNodes>
            0 -1 567 2.6450832956470549e-04</internalNodes>
          <leafValues>
            -1.3596805930137634e-01 1.1622862517833710e-01</leafValues></_>
        <_>
          <internalNodes>
            0 -1 491 -4.7634840011596680e-03</internalNodes>
          <leafValues>
            -8.1501168012619019e-01 2.1766783669590950e-02</leafValues></_>
        <_>
          <internalNodes>
            0 -1 130 2.0865909755229950e-03</internalNodes>
          <leafValues>
            -9.2105433344841003e-02 1.6711625456809998e-01</leafValues></_>
        <_>
          <internalNodes>
            0 -1 134 -7.2170066414400935e-04</internalNodes>
          <leafValues>
            1.9822250306606293e-01 -9.5360860228538513e-02</leafValues></_>
        <_>
          <internalNodes>
            0 -1 738 2.7661845088005066e-03</internalNodes>
          <leafValues>
            5.0477318465709686e-02 -3.3047971129417419e-01</leafValues></_>
        <_>
          <internalNodes>
            0 -1 241 -4.6453587710857391e-03</internalNodes>
          <leafValues>
            -4.1685894131660461e-01 3.4163322299718857e-02</leafValues></_>
        <_>
          <internalNodes>
            0 -1 548 -7.9313572496175766e-03</internalNodes>
          <leafValues>
            -5.8657062053680420e-01 2.4468291550874710e-02</leafValues></_>
        <_>
          <internalNodes>
            0 -1 296 7.1854274719953537e-03</internalNodes>
          <leafValues>
            -4.7531664371490479e-02 3.5802322626113892e-01</leafValues></_>
        <_>
          <internalNodes>
            0 -1 506 -4.4988524168729782e-03</internalNodes>
          <leafValues>
            -4.5812562108039856e-01 3.3810149878263474e-02</leafValues></_>
        <_>
          <internalNodes>
            0 -1 80 -3.9098381996154785e-02</internalNodes>
          <leafValues>
            -5.0585442781448364e-01 2.8120165690779686e-02</leafValues></_>
        <_>
          <internalNodes>
            0 -1 112 -1.5158412279561162e-03</internalNodes>
          <leafValues>
            1.7714522778987885e-01 -9.9784970283508301e-02</leafValues></_>
        <_>
          <internalNodes>
            0 -1 226 1.0759294964373112e-03</internalNodes>
          <leafValues>
            -9.6843793988227844e-02 1.7195312678813934e-01</leafValues></_>
        <_>
          <internalNodes>
            0 -1 651 -7.3404400609433651e-04</internalNodes>
          <leafValues>
            1.9676417112350464e-01 -7.9219877719879150e-02</leafValues></_>
        <_>
          <internalNodes>
            0 -1 362 -1.4315788447856903e-01</internalNodes>
          <leafValues>
            -5.5040848255157471e-01 3.1491074711084366e-02</leafValues></_>
        <_>
          <internalNodes>
            0 -1 195 -4.5513166114687920e-03</internalNodes>
          <leafValues>
            -4.5392125844955444e-01 3.1248467043042183e-02</leafValues></_>
        <_>
          <internalNodes>
            0 -1 707 -1.1761052301153541e-03</internalNodes>
          <leafValues>
            1.3900531828403473e-01 -1.1043269187211990e-01</leafValues></_>
        <_>
          <internalNodes>
            0 -1 52 -4.8371469601988792e-03</internalNodes>
          <leafValues>
            -6.3736021518707275e-01 2.4443179368972778e-02</leafValues></_>
        <_>
          <internalNodes>
            0 -1 59 -1.0331795783713460e-03</internalNodes>
          <leafValues>
            1.6614042222499847e-01 -1.0148432850837708e-01</leafValues></_>
        <_>
          <internalNodes>
            0 -1 441 -7.6470216736197472e-03</internalNodes>
          <leafValues>
            1.7862538993358612e-01 -9.0336672961711884e-02</leafValues></_>
        <_>
          <internalNodes>
            0 -1 292 5.1312081515789032e-02</internalNodes>
          <leafValues>
            6.7208833992481232e-02 -2.7716422080993652e-01</leafValues></_>
        <_>
          <internalNodes>
            0 -1 571 3.2232084777206182e-03</internalNodes>
          <leafValues>
            3.0636994168162346e-02 -4.4814759492874146e-01</leafValues></_>
        <_>
          <internalNodes>
            0 -1 203 -2.1688280627131462e-02</internalNodes>
          <leafValues>
            -5.6381940841674805e-01 2.5512624531984329e-02</leafValues></_>
        <_>
          <internalNodes>
            0 -1 557 -1.3101596850901842e-03</internalNodes>
          <leafValues>
            1.4691287279129028e-01 -1.0578420758247375e-01</leafValues></_>
        <_>
          <internalNodes>
            0 -1 153 -1.4427686110138893e-03</internalNodes>
          <leafValues>
            2.5307139754295349e-01 -5.8714687824249268e-02</leafValues></_>
        <_>
          <internalNodes>
            0 -1 0 1.0272575914859772e-01</internalNodes>
          <leafValues>
            -7.6938360929489136e-02 2.0215064287185669e-01</leafValues></_>
        <_>
          <internalNodes>
            0 -1 403 -3.4403018653392792e-03</internalNodes>
          <leafValues>
            1.4198876917362213e-01 -1.1353120952844620e-01</leafValues></_>
        <_>
          <internalNodes>
            0 -1 420 -1.1512828059494495e-03</internalNodes>
          <leafValues>
            1.7357459664344788e-01 -9.7712531685829163e-02</leafValues></_>
        <_>
          <internalNodes>
            0 -1 486 5.9451353736221790e-03</internalNodes>
          <leafValues>
            2.6604646816849709e-02 -6.3759052753448486e-01</leafValues></_>
        <_>
          <internalNodes>
            0 -1 340 6.0686826705932617e-02</internalNodes>
          <leafValues>
            -4.7142833471298218e-02 3.3233600854873657e-01</leafValues></_>
        <_>
          <internalNodes>
            0 -1 131 4.3009590357542038e-02</internalNodes>
          <leafValues>
            5.3470153361558914e-02 -3.3853197097778320e-01</leafValues></_>
        <_>
          <internalNodes>
            0 -1 250 5.4613672196865082e-02</internalNodes>
          <leafValues>
            -3.9868265390396118e-02 3.8490307331085205e-01</leafValues></_>
        <_>
          <internalNodes>
            0 -1 418 -2.1479390561580658e-02</internalNodes>
          <leafValues>
            -4.8586359620094299e-01 3.3344607800245285e-02</leafValues></_>
        <_>
          <internalNodes>
            0 -1 743 1.2987120077013969e-02</internalNodes>
          <leafValues>
            -4.3586920946836472e-02 4.2159625887870789e-01</leafValues></_>
        <_>
          <internalNodes>
            0 -1 336 -4.7332914546132088e-03</internalNodes>
          <leafValues>
            -5.9478455781936646e-01 2.6830101385712624e-02</leafValues></_>
        <_>
          <internalNodes>
            0 -1 332 -9.3183852732181549e-04</internalNodes>
          <leafValues>
            1.5192382037639618e-01 -1.0096764564514160e-01</leafValues></_>
        <_>
          <internalNodes>
            0 -1 518 1.8589947372674942e-02</internalNodes>
          <leafValues>
            2.9374590143561363e-02 -5.0083899497985840e-01</leafValues></_>
        <_>
          <internalNodes>
            0 -1 522 2.0469939336180687e-03</internalNodes>
          <leafValues>
            -7.4351392686367035e-02 2.2334417700767517e-01</leafValues></_>
        <_>
          <internalNodes>
            0 -1 579 2.0364113152027130e-03</internalNodes>
          <leafValues>
            -7.2691179811954498e-02 2.1179082989692688e-01</leafValues></_>
        <_>
          <internalNodes>
            0 -1 622 2.0865287631750107e-02</internalNodes>
          <leafValues>
            -3.4030769020318985e-02 4.5495045185089111e-01</leafValues></_>
        <_>
          <internalNodes>
            0 -1 536 6.9330087862908840e-03</internalNodes>
          <leafValues>
            3.5412359982728958e-02 -4.4612860679626465e-01</leafValues></_>
        <_>
          <internalNodes>
            0 -1 381 1.5801487024873495e-03</internalNodes>
          <leafValues>
            -7.0162132382392883e-02 2.0515055954456329e-01</leafValues></_>
        <_>
          <internalNodes>
            0 -1 284 -6.2667593359947205e-02</internalNodes>
          <leafValues>
            -6.1718541383743286e-01 2.4208426475524902e-02</leafValues></_>
        <_>
          <internalNodes>
            0 -1 156 -4.4284388422966003e-03</internalNodes>
          <leafValues>
            1.9722828269004822e-01 -7.5238838791847229e-02</leafValues></_></weakClassifiers></_>
    <!-- stage 6 -->
    <_>
      <maxWeakCount>100</maxWeakCount>
      <stageThreshold>-5.9392642974853516e-01</stageThreshold>
      <weakClassifiers>
        <_>
          <internalNodes>
            0 -1 521 2.6326917577534914e-04</internalNodes>
          <leafValues>
            2.0470263063907623e-01 4.8165869712829590e-01</leafValues></_>
        <_>
          <internalNodes>
            0 -1 207 6.7444089800119400e-03</internalNodes>
          <leafValues>
            -2.3671526461839676e-02 3.4621214866638184e-01</leafValues></_>
        <_>
          <internalNodes>
            0 -1 257 -1.7966906307265162e-03</internalNodes>
          <leafValues>
            1.3190037012100220e-01 -1.2433037906885147e-01</leafValues></_>
        <_>
          <internalNodes>
            0 -1 207 6.4599039033055305e-03</internalNodes>
          <leafValues>
            3.2598089426755905e-02 -4.1224169731140137e-01</leafValues></_>
        <_>
          <internalNodes>
            0 -1 207 6.5604271367192268e-03</internalNodes>
          <leafValues>
            -3.7721674889326096e-03 4.3321904540061951e-01</leafValues></_>
        <_>
          <internalNodes>
            0 -1 207 6.8857818841934204e-03</internalNodes>
          <leafValues>
            3.7445034831762314e-04 -4.6006995439529419e-01</leafValues></_>
        <_>
          <internalNodes>
            0 -1 207 6.9626597687602043e-03</internalNodes>
          <leafValues>
            -7.3174940189346671e-04 4.5936137437820435e-01</leafValues></_>
        <_>
          <internalNodes>
            0 -1 317 6.5895607694983482e-03</internalNodes>
          <leafValues>
            -1.4284510398283601e-03 -5.0097793340682983e-01</leafValues></_>
        <_>
          <internalNodes>
            0 -1 578 -3.0117956921458244e-03</internalNodes>
          <leafValues>
            2.4377964437007904e-01 -5.1458504050970078e-02</leafValues></_>
        <_>
          <internalNodes>
            0 -1 578 1.2273741886019707e-03</internalNodes>
          <leafValues>
            -1.1727496981620789e-01 2.2691349685192108e-01</leafValues></_>
        <_>
          <internalNodes>
            0 -1 566 3.6089174449443817e-02</internalNodes>
          <leafValues>
            7.4163682758808136e-02 -2.9186388850212097e-01</leafValues></_>
        <_>
          <internalNodes>
            0 -1 48 3.0505351722240448e-02</internalNodes>
          <leafValues>
            -6.8543359637260437e-02 3.2298946380615234e-01</leafValues></_>
        <_>
          <internalNodes>
            0 -1 283 -1.3722556177526712e-03</internalNodes>
          <leafValues>
            1.5931583940982819e-01 -9.6817255020141602e-02</leafValues></_>
        <_>
          <internalNodes>
            0 -1 322 -2.2576276678591967e-03</internalNodes>
          <leafValues>
            1.7193810641765594e-01 -8.5277982056140900e-02</leafValues></_>
        <_>
          <internalNodes>
            0 -1 320 -5.9234602376818657e-03</internalNodes>
          <leafValues>
            2.2603434324264526e-01 -7.9480841755867004e-02</leafValues></_>
        <_>
          <internalNodes>
            0 -1 540 1.6534050228074193e-03</internalNodes>
          <leafValues>
            -9.2096388339996338e-02 1.9407500326633453e-01</leafValues></_>
        <_>
          <internalNodes>
            0 -1 729 -4.3482817709445953e-03</internalNodes>
          <leafValues>
            -5.1433610916137695e-01 3.4021917730569839e-02</leafValues></_>
        <_>
          <internalNodes>
            0 -1 586 -5.8837267570197582e-03</internalNodes>
          <leafValues>
            -5.1239258050918579e-01 3.1943093985319138e-02</leafValues></_>
        <_>
          <internalNodes>
            0 -1 695 -1.8482028972357512e-03</internalNodes>
          <leafValues>
            1.9237673282623291e-01 -7.8994892537593842e-02</leafValues></_>
        <_>
          <internalNodes>
            0 -1 204 -4.3336758390069008e-03</internalNodes>
          <leafValues>
            -5.6074786186218262e-01 2.6141798123717308e-02</leafValues></_>
        <_>
          <internalNodes>
            0 -1 4 -7.4443137645721436e-01</internalNodes>
          <leafValues>
            8.6860907077789307e-01 -1.6448136419057846e-02</leafValues></_>
        <_>
          <internalNodes>
            0 -1 648 -8.1686256453394890e-03</internalNodes>
          <leafValues>
            2.2416982054710388e-01 -6.2531806528568268e-02</leafValues></_>
        <_>
          <internalNodes>
            0 -1 660 -5.0475038588047028e-03</internalNodes>
          <leafValues>
            2.6157599687576294e-01 -5.7585295289754868e-02</leafValues></_>
        <_>
          <internalNodes>
            0 -1 268 5.2320417016744614e-03</internalNodes>
          <leafValues>
            2.2465093061327934e-02 -6.8768006563186646e-01</leafValues></_>
        <_>
          <internalNodes>
            0 -1 338 -4.3465020135045052e-03</internalNodes>
          <leafValues>
            -5.2031463384628296e-01 2.7668422088027000e-02</leafValues></_>
        <_>
          <internalNodes>
