<?xml version="1.0"?>
<opencv_storage>
<stage5>
  <maxWeakCount>91</maxWeakCount>
  <stageThreshold>-5.4168152809143066e-01</stageThreshold>
  <weakClassifiers>
    <_>
      <internalNodes>
        0 -1 64328 -6.1014632228761911e-04</internalNodes>
      <leafValues>
        4.8028674721717834e-01 2.2979797422885895e-01</leafValues></_>
    <_>
      <internalNodes>
        0 -1 61934 -9.0616010129451752e-04</internalNodes>
      <leafValues>
        1.8622782826423645e-01 -8.1644438207149506e-02</leafValues></_>
    <_>
      <internalNodes>
        0 -1 53672 5.9432419948279858e-04</internalNodes>
      <leafValues>
        -9.8289482295513153e-02 1.5605542063713074e-01</leafValues></_>
    <_>
      <internalNodes>
        0 -1 57504 1.9017145037651062e-02</internalNodes>
      <leafValues>
        3.5689663141965866e-02 -2.8196233510971069e-01</leafValues></_>
    <_>
      <internalNodes>
        0 -1 61179 -5.8041892945766449e-02</internalNodes>
      <leafValues>
        -4.4703808426856995e-01 4.4194996356964111e-02</leafValues></_>
    <_>
      <internalNodes>
        0 -1 64326 4.9739610403776169e-04</internalNodes>
      <leafValues>
        -9.3792229890823364e-02 1.6373464465141296e-01</leafValues></_>
    <_>
      <internalNodes>
        0 -1 55503 -1.7283568158745766e-02</internalNodes>
      <leafValues>
        -3.1519067287445068e-01 4.8715524375438690e-02</leafValues></_>
    <_>
      <internalNodes>
        0 -1 67813 -5.4396903142333031e-03</internalNodes>
      <leafValues>
        -3.1198719143867493e-01 5.9365659952163696e-02</leafValues></_>
    <_>
      <internalNodes>
        0 -1 39634 -2.1531565580517054e-03</internalNodes>
      <leafValues>
        2.0270797610282898e-01 -7.3269255459308624e-02</leafValues></_>
    <_>
      <internalNodes>
        0 -1 39634 3.4844046458601952e-03</internalNodes>
      <leafValues>
        -8.3800271153450012e-02 2.8232309222221375e-01</leafValues></_>
    <_>
      <internalNodes>
        0 -1 54514 -3.7856982089579105e-03</internalNodes>
      <leafValues>
        -5.3621900081634521e-01 4.3297089636325836e-02</leafValues></_>
    <_>
      <internalNodes>
        0 -1 52781 -4.4604882597923279e-02</internalNodes>
      <leafValues>
        -7.0455247163772583e-01 1.9542573019862175e-02</leafValues></_>
    <_>
      <internalNodes>
        0 -1 24956 3.9487180765718222e-04</internalNodes>
      <leafValues>
        -9.3438610434532166e-02 1.6133433580398560e-01</leafValues></_>
    <_>
      <internalNodes>
        0 -1 24008 1.1490404140204191e-03</internalNodes>
      <leafValues>
        -7.1828156709671021e-02 2.2110301256179810e-01</leafValues></_>
    <_>
      <internalNodes>
        0 -1 75105 -1.4789584092795849e-03</internalNodes>
      <leafValues>
        2.1746408939361572e-01 -7.6076596975326538e-02</leafValues></_>
    <_>
      <internalNodes>
        0 -1 68626 -1.0733195580542088e-02</internalNodes>
      <leafValues>
        -4.9515920877456665e-01 3.2821606844663620e-02</leafValues></_>
    <_>
      <internalNodes>
        0 -1 63960 -1.3323684222996235e-02</internalNodes>
      <leafValues>
        -6.0242742300033569e-01 2.5794673711061478e-02</leafValues></_>
    <_>
      <internalNodes>
        0 -1 53668 1.6681730048730969e-03</internalNodes>
      <leafValues>
        -5.9410404413938522e-02 2.6817768812179565e-01</leafValues></_>
    <_>
      <internalNodes>
        0 -1 44374 3.8853906095027924e-02</internalNodes>
      <leafValues>
        4.6309914439916611e-02 -3.4797969460487366e-01</leafValues></_>
    <_>
      <internalNodes>
        0 -1 70343 -6.8255569785833359e-03</internalNodes>
      <leafValues>
        1.8624190986156464e-01 -8.6798533797264099e-02</leafValues></_>
    <_>
      <internalNodes>
        0 -1 70348 9.8875220865011215e-03</internalNodes>
      <leafValues>
        -7.8088231384754181e-02 2.0459941029548645e-01</leafValues></_>
    <_>
      <internalNodes>
        0 -1 75812 -1.0331623256206512e-01</internalNodes>
      <leafValues>
        5.1174354553222656e-01 -3.1571462750434875e-02</leafValues></_>
    <_>
      <internalNodes>
        0 -1 17012 -2.1262532472610474e-01</internalNodes>
      <leafValues>
        -4.1231653094291687e-01 4.4319313019514084e-02</leafValues></_>
    <_>
      <internalNodes>
        0 -1 30729 4.2221015319228172e-03</internalNodes>
      <leafValues>
        3.3259738236665726e-02 -4.5013213157653809e-01</leafValues></_>
    <_>
      <internalNodes>
        0 -1 75391 2.3633003234863281e-02</internalNodes>
      <leafValues>
        -3.9111632853746414e-02 3.8095796108245850e-01</leafValues></_>
    <_>
      <internalNodes>
        0 -1 42555 1.4864623546600342e-02</internalNodes>
      <leafValues>
        3.1957201659679413e-02 -5.0807332992553711e-01</leafValues></_>
    <_>
      <internalNodes>
        0 -1 5793 1.6150016337633133e-02</internalNodes>
      <leafValues>
        1.7601661384105682e-02 -7.5074839591979980e-01</leafValues></_>
    <_>
      <internalNodes>
        0 -1 20627 1.6885084332898259e-03</internalNodes>
      <leafValues>
        -9.5334343612194061e-02 1.6862304508686066e-01</leafValues></_>
    <_>
      <internalNodes>
        0 -1 73244 9.1399077791720629e-04</internalNodes>
      <leafValues>
        -9.5036871731281281e-02 1.5812711417675018e-01</leafValues></_>
    <_>
      <internalNodes>
        0 -1 74994 -8.3187166601419449e-03</internalNodes>
      <leafValues>
        2.9762470722198486e-01 -4.9196872860193253e-02</leafValues></_>
    <_>
      <internalNodes>
        0 -1 30778 -4.0846294723451138e-03</internalNodes>
      <leafValues>
        -2.6413652300834656e-01 6.0312807559967041e-02</leafValues></_>
    <_>
      <internalNodes>
        0 -1 23500 1.6470428090542555e-03</internalNodes>
      <leafValues>
        -7.1651019155979156e-02 2.1939799189567566e-01</leafValues></_>
    <_>
      <internalNodes>
        0 -1 78208 1.0674059391021729e-02</internalNodes>
      <leafValues>
        -3.9563648402690887e-02 3.6097598075866699e-01</leafValues></_>
    <_>
      <internalNodes>
        0 -1 49529 -8.2826204597949982e-03</internalNodes>
      <leafValues>
        -5.5558550357818604e-01 3.0565612018108368e-02</leafValues></_>
    <_>
      <internalNodes>
        0 -1 70462 -2.9810957610607147e-02</internalNodes>
      <leafValues>
        -6.9129216670989990e-01 1.7997771501541138e-02</leafValues></_>
    <_>
      <internalNodes>
        0 -1 31482 1.7300403118133545e-01</internalNodes>
      <leafValues>
        -3.0008820816874504e-02 5.0326347351074219e-01</leafValues></_>
    <_>
      <internalNodes>
        0 -1 52442 5.5883582681417465e-02</internalNodes>
      <leafValues>
        3.1400255858898163e-02 -5.6083118915557861e-01</leafValues></_>
    <_>
      <internalNodes>
        0 -1 56963 1.7125127837061882e-02</internalNodes>
      <leafValues>
        -6.4833395183086395e-02 2.3613579571247101e-01</leafValues></_>
    <_>
      <internalNodes>
        0 -1 47247 -4.1443260852247477e-04</internalNodes>
      <leafValues>
        1.6512040793895721e-01 -9.3606702983379364e-02</leafValues></_>
    <_>
      <internalNodes>
        0 -1 48504 -5.2545126527547836e-03</internalNodes>
      <leafValues>
        -4.4379916787147522e-01 3.3497516065835953e-02</leafValues></_>
    <_>
      <internalNodes>
        0 -1 53210 -4.7816321603022516e-04</internalNodes>
      <leafValues>
        1.7551854252815247e-01 -1.0951445251703262e-01</leafValues></_>
    <_>
      <internalNodes>
        0 -1 52333 -1.1430199956521392e-03</internalNodes>
      <leafValues>
        1.8112227320671082e-01 -8.9288748800754547e-02</leafValues></_>
    <_>
      <internalNodes>
        0 -1 52005 -5.7679524616105482e-05</internalNodes>
      <leafValues>
        1.2217669934034348e-01 -1.3014620542526245e-01</leafValues></_>
    <_>
      <internalNodes>
        0 -1 34873 2.3019328713417053e-02</internalNodes>
      <leafValues>
        3.4363307058811188e-02 -4.9240562319755554e-01</leafValues></_>
    <_>
      <internalNodes>
        0 -1 31495 -1.6320768743753433e-02</internalNodes>
      <leafValues>
        -5.3809034824371338e-01 3.2226767390966415e-02</leafValues></_>
    <_>
      <internalNodes>
        0 -1 60589 -1.6815450042486191e-02</internalNodes>
      <leafValues>
        -3.1659743189811707e-01 4.5774906873703003e-02</leafValues></_>
    <_>
      <internalNodes>
        0 -1 58517 -2.6022801175713539e-03</internalNodes>
      <leafValues>
        2.6778301596641541e-01 -6.2050297856330872e-02</leafValues></_>
    <_>
      <internalNodes>
        0 -1 54241 3.5627707839012146e-02</internalNodes>
      <leafValues>
        3.1743854284286499e-02 -4.9945995211601257e-01</leafValues></_>
    <_>
      <internalNodes>
        0 -1 64540 2.6450832956470549e-04</internalNodes>
      <leafValues>
        -1.3596805930137634e-01 1.1622862517833710e-01</leafValues></_>
    <_>
      <internalNodes>
        0 -1 60259 -4.7634840011596680e-03</internalNodes>
      <leafValues>
        -8.1501168012619019e-01 2.1766783669590950e-02</leafValues></_>
    <_>
      <internalNodes>
        0 -1 27282 2.0865909755229950e-03</internalNodes>
      <leafValues>
        -9.2105433344841003e-02 1.6711625456809998e-01</leafValues></_>
    <_>
      <internalNodes>
        0 -1 27473 -7.2170066414400935e-04</internalNodes>
      <leafValues>
        1.9822250306606293e-01 -9.5360860228538513e-02</leafValues></_>
    <_>
      <internalNodes>
        0 -1 73471 2.7661845088005066e-03</internalNodes>
      <leafValues>
        5.0477318465709686e-02 -3.3047971129417419e-01</leafValues></_>
    <_>
      <internalNodes>
        0 -1 43541 -4.6453587710857391e-03</internalNodes>
      <leafValues>
        -4.1685894131660461e-01 3.4163322299718857e-02</leafValues></_>
    <_>
      <internalNodes>
        0 -1 62792 -7.9313572496175766e-03</internalNodes>
      <leafValues>
        -5.8657062053680420e-01 2.4468291550874710e-02</leafValues></_>
    <_>
      <internalNodes>
        0 -1 48258 7.1854274719953537e-03</internalNodes>
      <leafValues>
        -4.7531664371490479e-02 3.5802322626113892e-01</leafValues></_>
    <_>
      <internalNodes>
        0 -1 61249 -4.4988524168729782e-03</internalNodes>
      <leafValues>
        -4.5812562108039856e-01 3.3810149878263474e-02</leafValues></_>
    <_>
      <internalNodes>
        0 -1 16983 -3.9098381996154785e-02</internalNodes>
      <leafValues>
        -5.0585442781448364e-01 2.8120165690779686e-02</leafValues></_>
    <_>
      <internalNodes>
        0 -1 22943 -1.5158412279561162e-03</internalNodes>
      <leafValues>
        1.7714522778987885e-01 -9.9784970283508301e-02</leafValues></_>
    <_>
      <internalNodes>
        0 -1 41804 1.0759294964373112e-03</internalNodes>
      <leafValues>
        -9.6843793988227844e-02 1.7195312678813934e-01</leafValues></_>
    <_>
      <internalNodes>
        0 -1 68583 -7.3404400609433651e-04</internalNodes>
      <leafValues>
        1.9676417112350464e-01 -7.9219877719879150e-02</leafValues></_>
    <_>
      <internalNodes>
        0 -1 53155 -1.4315788447856903e-01</internalNodes>
      <leafValues>
        -5.5040848255157471e-01 3.1491074711084366e-02</leafValues></_>
    <_>
      <internalNodes>
        0 -1 38136 -4.5513166114687920e-03</internalNodes>
      <leafValues>
        -4.5392125844955444e-01 3.1248467043042183e-02</leafValues></_>
    <_>
      <internalNodes>
        0 -1 71762 -1.1761052301153541e-03</internalNodes>
      <leafValues>
        1.3900531828403473e-01 -1.1043269187211990e-01</leafValues></_>
    <_>
      <internalNodes>
        0 -1 9605 -4.8371469601988792e-03</internalNodes>
      <leafValues>
        -6.3736021518707275e-01 2.4443179368972778e-02</leafValues></_>
    <_>
      <internalNodes>
        0 -1 11737 -1.0331795783713460e-03</internalNodes>
      <leafValues>
        1.6614042222499847e-01 -1.0148432850837708e-01</leafValues></_>
    <_>
      <internalNodes>
        0 -1 58068 -7.6470216736197472e-03</internalNodes>
      <leafValues>
        1.7862538993358612e-01 -9.0336672961711884e-02</leafValues></_>
    <_>
      <internalNodes>
        0 -1 48030 5.1312081515789032e-02</internalNodes>
      <leafValues>
        6.7208833992481232e-02 -2.7716422080993652e-01</leafValues></_>
    <_>
      <internalNodes>
        0 -1 64732 3.2232084777206182e-03</internalNodes>
      <leafValues>
        3.0636994168162346e-02 -4.4814759492874146e-01</leafValues></_>
    <_>
      <internalNodes>
        0 -1 39291 -2.1688280627131462e-02</internalNodes>
      <leafValues>
        -5.6381940841674805e-01 2.5512624531984329e-02</leafValues></_>
    <_>
      <internalNodes>
        0 -1 64008 -1.3101596850901842e-03</internalNodes>
      <leafValues>
        1.4691287279129028e-01 -1.0578420758247375e-01</leafValues></_>
    <_>
      <internalNodes>
        0 -1 30726 -1.4427686110138893e-03</internalNodes>
      <leafValues>
        2.5307139754295349e-01 -5.8714687824249268e-02</leafValues></_>
    <_>
      <internalNodes>
        0 -1 392 1.0272575914859772e-01</internalNodes>
      <leafValues>
        -7.6938360929489136e-02 2.0215064287185669e-01</leafValues></_>
    <_>
      <internalNodes>
        0 -1 54762 -3.4403018653392792e-03</internalNodes>
      <leafValues>
        1.4198876917362213e-01 -1.1353120952844620e-01</leafValues></_>
    <_>
      <internalNodes>
        0 -1 56911 -1.1512828059494495e-03</internalNodes>
      <leafValues>
        1.7357459664344788e-01 -9.7712531685829163e-02</leafValues></_>
    <_>
      <internalNodes>
        0 -1 59960 5.9451353736221790e-03</internalNodes>
      <leafValues>
        2.6604646816849709e-02 -6.3759052753448486e-01</leafValues></_>
    <_>
      <internalNodes>
        0 -1 52089 6.0686826705932617e-02</internalNodes>
      <leafValues>
        -4.7142833471298218e-02 3.3233600854873657e-01</leafValues></_>
    <_>
      <internalNodes>
        0 -1 27364 4.3009590357542038e-02</internalNodes>
      <leafValues>
        5.3470153361558914e-02 -3.3853197097778320e-01</leafValues></_>
    <_>
      <internalNodes>
        0 -1 44121 5.4613672196865082e-02</internalNodes>
      <leafValues>
        -3.9868265390396118e-02 3.8490307331085205e-01</leafValues></_>
    <_>
      <internalNodes>
        0 -1 56735 -2.1479390561580658e-02</internalNodes>
      <leafValues>
        -4.8586359620094299e-01 3.3344607800245285e-02</leafValues></_>
    <_>
      <internalNodes>
        0 -1 74007 1.2987120077013969e-02</internalNodes>
      <leafValues>
        -4.3586920946836472e-02 4.2159625887870789e-01</leafValues></_>
    <_>
      <internalNodes>
        0 -1 51994 -4.7332914546132088e-03</internalNodes>
      <leafValues>
        -5.9478455781936646e-01 2.6830101385712624e-02</leafValues></_>
    <_>
      <internalNodes>
        0 -1 50966 -9.3183852732181549e-04</internalNodes>
      <leafValues>
        1.5192382037639618e-01 -1.0096764564514160e-01</leafValues></_>
    <_>
      <internalNodes>
        0 -1 61481 1.8589947372674942e-02</internalNodes>
      <leafValues>
        2.9374590143561363e-02 -5.0083899497985840e-01</leafValues></_>
    <_>
      <internalNodes>
        0 -1 61655 2.0469939336180687e-03</internalNodes>
      <leafValues>
        -7.4351392686367035e-02 2.2334417700767517e-01</leafValues></_>
    <_>
      <internalNodes>
        0 -1 64933 2.0364113152027130e-03</internalNodes>
      <leafValues>
        -7.2691179811954498e-02 2.1179082989692688e-01</leafValues></_>
    <_>
      <internalNodes>
        0 -1 67498 2.0865287631750107e-02</internalNodes>
      <leafValues>
        -3.4030769020318985e-02 4.5495045185089111e-01</leafValues></_>
    <_>
      <internalNodes>
        0 -1 62173 6.9330087862908840e-03</internalNodes>
      <leafValues>
        3.5412359982728958e-02 -4.4612860679626465e-01</leafValues></_>
    <_>
      <internalNodes>
        0 -1 54193 1.5801487024873495e-03</internalNodes>
      <leafValues>
        -7.0162132382392883e-02 2.0515055954456329e-01</leafValues></_>
    <_>
      <internalNodes>
        0 -1 47752 -6.2667593359947205e-02</internalNodes>
      <leafValues>
        -6.1718541383743286e-01 2.4208426475524902e-02</leafValues></_>
    <_>
      <internalNodes>
        0 -1 31040 -4.4284388422966003e-03</internalNodes>
      <leafValues>
        1.9722828269004822e-01 -7.5238838791847229e-02</leafValues></_></weakClassifiers></stage5>
</opencv_storage>
